966 100
， 0.100286 -0.115179 -0.077742 0.428363 -0.207589 -0.118869 0.571625 -0.380827 -0.166079 0.111431 0.730599 -0.193731 0.205276 0.065467 0.262066 -0.146063 -0.409178 0.075034 0.288074 -0.438095 0.068968 0.587579 0.354764 -0.155165 0.066490 0.093631 -0.085075 -0.159399 0.311268 0.430532 0.190424 0.043791 0.154499 0.392698 -0.094686 0.342051 0.199954 -0.055294 -0.351162 -0.166700 -0.391226 -0.038446 -0.288064 -0.272389 -0.420818 -0.166352 0.198620 0.400444 0.067916 0.023549 -0.223758 -0.032297 0.089196 0.229731 0.100917 -0.198622 0.036670 -0.157527 -0.135741 0.354972 0.151307 0.632064 -0.017117 0.120802 -0.204822 0.267429 -0.103027 -0.240034 -0.185175 0.115231 -0.552241 0.283845 -0.007871 0.194807 -0.188922 -0.380674 0.309866 -0.133502 0.121938 0.388782 -0.248849 0.096472 0.049514 0.256524 -0.192085 -0.468905 0.396149 0.109571 0.136949 -0.056795 0.145319 -0.154857 0.469353 -0.283706 0.077365 0.220352 0.026471 -0.051338 -0.279041 -0.090085
的 0.105476 -0.072521 -0.081070 0.431452 -0.211656 -0.177086 0.548922 -0.351938 -0.174349 0.044257 0.698699 -0.188869 0.182540 0.026053 0.198974 -0.022643 -0.365049 -0.034030 0.298138 -0.364056 0.032872 0.591712 0.362317 -0.159368 0.012074 0.176299 -0.045674 -0.113282 0.315762 0.415825 0.116959 -0.033102 0.109594 0.322603 0.021071 0.256320 0.155050 -0.010770 -0.271050 -0.109982 -0.392528 -0.005304 -0.254014 -0.316923 -0.352905 -0.149824 0.210938 0.414894 0.001284 -0.017380 -0.293915 -0.046599 0.173925 0.127262 0.043319 -0.126069 0.008296 -0.165971 -0.064022 0.393378 0.153146 0.633241 -0.001807 0.158232 -0.192554 0.321822 -0.023232 -0.303333 -0.194061 0.173614 -0.558586 0.200764 0.054647 0.142106 -0.209803 -0.349485 0.306665 -0.188769 0.099635 0.358906 -0.250517 0.004677 -0.000960 0.273616 -0.225589 -0.429715 0.378548 0.144966 0.242076 -0.057892 0.207150 -0.053345 0.511290 -0.286919 0.108826 0.233259 0.005927 0.024891 -0.303995 -0.012093
我 0.102223 -0.115035 -0.078494 0.428145 -0.206521 -0.119658 0.555123 -0.359471 -0.169058 0.100474 0.718310 -0.192169 0.203636 0.056542 0.247276 -0.124331 -0.407172 0.047731 0.304405 -0.432382 0.056128 0.581480 0.355836 -0.171183 0.063681 0.110608 -0.077538 -0.157330 0.318073 0.434215 0.162518 0.041519 0.159744 0.380954 -0.087436 0.334205 0.197160 -0.046168 -0.325882 -0.145495 -0.392119 -0.040023 -0.284636 -0.282889 -0.409054 -0.161466 0.192715 0.407756 0.055703 0.010875 -0.248232 -0.022681 0.098459 0.213452 0.080167 -0.186810 0.017234 -0.149662 -0.125430 0.362086 0.164832 0.626440 -0.016282 0.126978 -0.206189 0.279646 -0.088813 -0.262865 -0.193400 0.121743 -0.549332 0.260385 0.012737 0.184790 -0.184258 -0.375969 0.314246 -0.129217 0.104286 0.376228 -0.254695 0.082177 0.028321 0.261250 -0.200371 -0.455236 0.391225 0.122123 0.148698 -0.043375 0.143807 -0.142477 0.474262 -0.274439 0.079375 0.216956 0.018752 -0.033808 -0.295547 -0.096683
了 0.092644 -0.113940 -0.074146 0.427447 -0.198279 -0.105164 0.545482 -0.376109 -0.172839 0.102830 0.724017 -0.176764 0.193900 0.073060 0.244376 -0.147819 -0.400914 0.078177 0.287396 -0.433860 0.062361 0.574885 0.337150 -0.164909 0.068620 0.082349 -0.082094 -0.145456 0.312692 0.414927 0.186476 0.047266 0.159203 0.388194 -0.088918 0.337950 0.195699 -0.037840 -0.337369 -0.168558 -0.390104 -0.035962 -0.289999 -0.271632 -0.412897 -0.178141 0.188157 0.397935 0.073126 0.021016 -0.211959 -0.041768 0.073683 0.225905 0.090598 -0.185063 0.030309 -0.149664 -0.132598 0.333275 0.152374 0.622560 -0.027294 0.107700 -0.204931 0.263959 -0.108679 -0.237099 -0.189932 0.099202 -0.535812 0.282622 -0.006340 0.203109 -0.178775 -0.375303 0.314550 -0.133766 0.127843 0.380574 -0.252217 0.095516 0.052593 0.258573 -0.183749 -0.452257 0.377538 0.111613 0.125050 -0.057463 0.142983 -0.149830 0.449729 -0.270637 0.078901 0.213706 0.022998 -0.040241 -0.274861 -0.097640
如何 0.100561 -0.045787 -0.019686 0.419584 -0.170577 -0.113325 0.615925 -0.447946 -0.156834 0.042195 0.765601 -0.143306 0.315275 0.160585 0.247985 -0.150352 -0.337829 0.237309 0.373154 -0.462774 0.138585 0.540365 0.340153 -0.183215 0.149627 0.043040 -0.157207 -0.165846 0.217926 0.322015 0.269508 -0.053143 0.078733 0.431721 0.013233 0.362591 0.087257 0.049196 -0.438348 -0.123695 -0.368209 0.075360 -0.244049 -0.223945 -0.444359 -0.106508 0.192640 0.418653 0.038028 0.067571 -0.167633 -0.089667 0.059126 0.259997 0.097155 -0.208834 0.073925 -0.264252 -0.244206 0.399122 0.122907 0.612547 -0.114087 0.042304 -0.051343 0.281347 -0.145936 -0.178178 -0.144403 0.141549 -0.466827 0.375782 -0.115031 0.176794 -0.210556 -0.317162 0.174962 -0.140906 0.200845 0.252968 -0.344891 0.051874 0.151329 0.224217 -0.163835 -0.412708 0.444120 0.057180 0.095294 -0.094275 0.167995 0.007966 0.511889 -0.242992 0.192208 0.168553 0.159927 -0.028333 -0.211960 -0.049822
奖励 0.057209 -0.106062 -0.119510 0.476913 -0.100232 -0.054029 0.449426 -0.263759 -0.080478 0.208900 0.663257 -0.197672 0.131058 -0.032007 0.287591 -0.148485 -0.488711 -0.031910 0.228467 -0.348567 -0.035512 0.529206 0.299960 -0.115193 -0.017630 0.045880 -0.058124 -0.104440 0.353259 0.423049 0.097789 0.105273 0.249316 0.286629 -0.097169 0.260819 0.201161 -0.015261 -0.264588 -0.178897 -0.372475 -0.131517 -0.245704 -0.245574 -0.321389 -0.231600 0.107352 0.367823 0.062656 -0.060663 -0.124397 0.035795 0.004152 0.311860 0.086684 -0.104875 0.002316 0.027847 -0.098641 0.189260 0.131975 0.619965 -0.088602 0.130961 -0.359844 0.208915 -0.140093 -0.171684 -0.176605 0.055700 -0.579037 0.143232 0.074987 0.193271 -0.064031 -0.334053 0.344695 -0.061508 0.070077 0.436107 -0.220460 0.191980 0.002815 0.224680 -0.148624 -0.413578 0.320066 0.189601 0.035611 -0.070288 0.105191 -0.206093 0.321782 -0.228815 0.104214 0.181101 -0.065531 0.007525 -0.213438 -0.150363
？ 0.082733 -0.078866 -0.077976 0.430062 -0.152088 -0.121467 0.512312 -0.344862 -0.152842 0.100918 0.709293 -0.158893 0.188199 0.050871 0.224619 -0.142635 -0.385615 0.098104 0.292604 -0.383249 0.058087 0.544482 0.305111 -0.161817 0.061930 0.072637 -0.099761 -0.140034 0.276046 0.348200 0.166890 0.015428 0.168185 0.337528 -0.042288 0.299773 0.136686 0.018593 -0.318275 -0.140633 -0.379909 -0.002454 -0.262952 -0.265451 -0.374654 -0.183043 0.153473 0.384553 0.073829 -0.005371 -0.180434 -0.042076 0.059336 0.240634 0.072649 -0.157338 0.032129 -0.130226 -0.139366 0.317819 0.121767 0.594157 -0.065306 0.112387 -0.199888 0.276352 -0.103546 -0.202829 -0.173214 0.110603 -0.514043 0.261308 0.003160 0.196859 -0.167708 -0.335128 0.270331 -0.122713 0.132979 0.336630 -0.275852 0.101855 0.055141 0.245127 -0.150071 -0.388598 0.344689 0.117565 0.108732 -0.069670 0.131826 -0.109294 0.432981 -0.255857 0.130778 0.192571 0.040252 0.008422 -0.224892 -0.083224
怎么 0.103777 -0.085236 -0.079202 0.453128 -0.206352 -0.162931 0.560726 -0.359694 -0.185776 0.067537 0.728308 -0.194741 0.186322 0.031075 0.211107 -0.043197 -0.382527 -0.001717 0.301978 -0.381325 0.048788 0.596884 0.367433 -0.156202 0.017840 0.157009 -0.053392 -0.110828 0.323254 0.408844 0.122320 -0.023234 0.123237 0.330713 0.014115 0.278112 0.160036 0.000199 -0.289255 -0.109955 -0.401617 -0.009786 -0.260856 -0.326012 -0.373286 -0.165796 0.212887 0.422113 0.016176 -0.007250 -0.273482 -0.047774 0.153011 0.155724 0.059799 -0.137975 0.022388 -0.172268 -0.082097 0.371204 0.145513 0.655247 -0.012389 0.143741 -0.195576 0.328473 -0.046025 -0.280685 -0.199996 0.168914 -0.561542 0.227528 0.044952 0.144880 -0.194166 -0.356292 0.292884 -0.177990 0.118915 0.356195 -0.264528 0.035271 0.015897 0.269397 -0.206600 -0.426357 0.378732 0.155992 0.210748 -0.053015 0.194848 -0.058904 0.495498 -0.289530 0.112435 0.223035 0.014993 0.007383 -0.305204 -0.026105
乘客 0.089332 -0.131111 -0.062051 0.407969 -0.196058 -0.098691 0.538000 -0.360376 -0.160713 0.128484 0.690988 -0.170997 0.194649 0.079037 0.254468 -0.133895 -0.400177 0.061693 0.255599 -0.393405 0.084548 0.542678 0.317010 -0.113748 0.041114 0.061631 -0.094389 -0.098165 0.273414 0.391607 0.154228 0.056767 0.179728 0.361065 -0.071352 0.305791 0.192250 -0.051945 -0.323239 -0.165661 -0.378571 -0.035062 -0.255096 -0.261389 -0.401579 -0.164820 0.197838 0.381750 0.068277 0.026233 -0.190160 -0.028496 0.058882 0.206999 0.104203 -0.171300 0.025128 -0.153508 -0.112022 0.313010 0.144135 0.618261 -0.031235 0.093598 -0.208143 0.260847 -0.127225 -0.200193 -0.183186 0.116764 -0.529178 0.248926 -0.006030 0.184989 -0.131222 -0.336098 0.290383 -0.114281 0.130640 0.364566 -0.258010 0.107360 0.050494 0.232802 -0.164180 -0.440145 0.347953 0.117843 0.117606 -0.058969 0.137546 -0.148820 0.418815 -0.254690 0.082850 0.192266 0.015785 -0.027985 -0.260437 -0.084091
订单 0.107992 -0.119012 -0.080464 0.403144 -0.195339 -0.065717 0.528811 -0.364140 -0.160768 0.147940 0.670007 -0.174925 0.193884 0.074208 0.257255 -0.139451 -0.393423 0.095489 0.222075 -0.399091 0.079134 0.494589 0.318369 -0.098390 0.061562 0.051057 -0.091018 -0.069706 0.281169 0.390355 0.144093 0.033808 0.155247 0.349943 -0.084574 0.314382 0.192017 -0.045696 -0.319484 -0.167569 -0.368361 -0.016380 -0.259184 -0.242231 -0.418561 -0.148629 0.184784 0.353362 0.083075 0.035569 -0.182829 -0.043943 0.039302 0.237403 0.122692 -0.187288 0.027215 -0.149164 -0.137360 0.303347 0.156128 0.616075 -0.034910 0.085817 -0.176241 0.241357 -0.139933 -0.190881 -0.149252 0.138485 -0.484019 0.267960 -0.055482 0.207097 -0.121664 -0.309429 0.267055 -0.118762 0.123278 0.338349 -0.254906 0.122974 0.049404 0.205908 -0.162903 -0.447601 0.323993 0.119789 0.076466 -0.045282 0.125311 -0.134507 0.397004 -0.258979 0.065532 0.185819 0.020424 -0.053612 -0.243804 -0.050962
未 0.069896 -0.129402 -0.092091 0.432802 -0.129309 -0.003647 0.480098 -0.261282 -0.118955 0.177067 0.648824 -0.178597 0.158381 0.017313 0.292886 -0.138491 -0.444756 -0.003090 0.144410 -0.348407 0.006832 0.462462 0.254062 -0.084146 -0.037417 0.020121 -0.042257 -0.048240 0.282011 0.418266 0.091677 0.090451 0.243643 0.278159 -0.081272 0.269196 0.203200 -0.044272 -0.251068 -0.150140 -0.376247 -0.109083 -0.208517 -0.242740 -0.323180 -0.232360 0.148382 0.326717 0.081055 -0.012393 -0.107609 0.021626 0.030871 0.287742 0.115910 -0.100135 0.018590 -0.013754 -0.063902 0.173625 0.139062 0.615142 -0.081480 0.112414 -0.310001 0.190771 -0.168976 -0.117541 -0.179599 0.079868 -0.545136 0.159785 0.033166 0.155485 -0.040902 -0.291365 0.281221 -0.074433 0.107550 0.392727 -0.250081 0.190349 0.029519 0.191978 -0.126408 -0.419939 0.256789 0.166843 0.037937 -0.076539 0.090500 -0.189483 0.321075 -0.226828 0.070396 0.158376 -0.021146 -0.002311 -0.222592 -0.119816
是 0.113453 -0.084787 -0.081123 0.430058 -0.212499 -0.175460 0.548948 -0.349192 -0.180674 0.049295 0.700504 -0.198239 0.178560 0.017247 0.176965 -0.018369 -0.367425 -0.041700 0.296430 -0.358302 0.023852 0.576384 0.365130 -0.149840 0.011278 0.165590 -0.054163 -0.095841 0.316422 0.407592 0.095546 -0.034732 0.115081 0.312335 0.016047 0.247014 0.142359 -0.006829 -0.264362 -0.100583 -0.394947 -0.010647 -0.258702 -0.327145 -0.364890 -0.130881 0.205280 0.401412 -0.004441 -0.004402 -0.294441 -0.053860 0.174328 0.107412 0.045317 -0.136242 0.013496 -0.162413 -0.067299 0.400360 0.161838 0.638176 0.003615 0.143445 -0.188729 0.316345 -0.001708 -0.301859 -0.191067 0.188071 -0.560214 0.185184 0.035641 0.146017 -0.193881 -0.341502 0.290184 -0.190095 0.105252 0.349589 -0.228727 0.002376 -0.007778 0.258994 -0.207259 -0.422351 0.370246 0.157342 0.246248 -0.040265 0.210039 -0.042721 0.498631 -0.280906 0.113540 0.233692 0.004576 0.030418 -0.299964 -0.005603
有 0.100145 -0.107799 -0.114905 0.487568 -0.142591 -0.135955 0.559148 -0.354344 -0.101358 0.148981 0.739355 -0.198664 0.174524 0.003341 0.267451 -0.144696 -0.462143 0.065653 0.337804 -0.412890 0.024448 0.599313 0.351275 -0.140091 0.081559 0.062968 -0.120796 -0.145013 0.337210 0.434112 0.126830 0.020469 0.196801 0.364059 -0.105130 0.333064 0.180422 0.013116 -0.334264 -0.183368 -0.400456 -0.061841 -0.315881 -0.258811 -0.406034 -0.168720 0.156869 0.421365 0.090802 -0.026229 -0.194265 -0.007527 0.022439 0.260941 0.088812 -0.198957 -0.012840 -0.113198 -0.200949 0.378342 0.173784 0.627089 -0.095722 0.109788 -0.244342 0.266994 -0.075844 -0.254779 -0.174584 0.101678 -0.546925 0.245089 -0.026194 0.224792 -0.149023 -0.346372 0.320464 -0.089956 0.103338 0.407221 -0.237098 0.123146 0.026361 0.255914 -0.178560 -0.472587 0.410456 0.156374 0.090114 -0.049102 0.173749 -0.159905 0.441486 -0.262067 0.129172 0.196338 -0.003894 0.012552 -0.236599 -0.118588
滴滴 0.114792 -0.101561 -0.118507 0.402267 -0.211504 -0.209533 0.587259 -0.455625 -0.249271 0.021114 0.770978 -0.138423 0.206684 0.085094 0.204039 -0.172561 -0.359456 0.209596 0.401584 -0.449313 0.134744 0.624655 0.285846 -0.216628 0.110438 0.116176 -0.170661 -0.220560 0.238677 0.296428 0.252941 -0.024937 0.169715 0.365910 -0.053343 0.365308 0.102171 0.092692 -0.355919 -0.158941 -0.400746 0.039485 -0.319575 -0.273431 -0.372848 -0.194828 0.167805 0.426185 0.142340 -0.013912 -0.254592 -0.105156 0.072421 0.201696 0.039301 -0.184755 0.024484 -0.244029 -0.183504 0.412839 0.136193 0.579919 -0.072482 0.120307 -0.176948 0.371493 -0.027752 -0.249786 -0.181244 0.121216 -0.515528 0.379166 0.009490 0.220681 -0.264922 -0.375883 0.280267 -0.155714 0.187632 0.325614 -0.349550 0.089296 0.078416 0.323267 -0.148722 -0.375456 0.373370 0.055115 0.120748 -0.095727 0.193694 -0.105593 0.577408 -0.322047 0.163979 0.226547 0.123902 0.031701 -0.221778 -0.134984
吗 0.103347 -0.086148 -0.082385 0.412981 -0.164490 -0.142663 0.532526 -0.361284 -0.147361 0.091306 0.711986 -0.161230 0.191816 0.058994 0.238380 -0.145284 -0.394442 0.125019 0.333141 -0.405714 0.074501 0.561628 0.320100 -0.166705 0.081769 0.074464 -0.126438 -0.161875 0.271377 0.367029 0.173175 -0.001604 0.160220 0.344346 -0.060038 0.326602 0.142994 0.024290 -0.331033 -0.153989 -0.372945 0.005528 -0.286619 -0.257220 -0.385315 -0.157195 0.154806 0.399057 0.084398 -0.009939 -0.196852 -0.047855 0.050903 0.234050 0.064651 -0.181956 0.013783 -0.154318 -0.165268 0.370396 0.141320 0.582865 -0.061255 0.113414 -0.186918 0.284411 -0.086080 -0.227333 -0.169597 0.116502 -0.498614 0.286321 -0.017632 0.193245 -0.184034 -0.342587 0.277485 -0.123784 0.128522 0.333520 -0.265792 0.086018 0.056413 0.257644 -0.167921 -0.404615 0.374534 0.093266 0.100626 -0.054422 0.155771 -0.117681 0.457121 -0.267653 0.131405 0.201202 0.055107 0.001691 -0.229332 -0.090261
到 0.052291 -0.073630 -0.068233 0.503694 -0.141246 -0.061849 0.493344 -0.320270 -0.177566 0.162248 0.728822 -0.166308 0.159636 0.072609 0.250699 -0.159704 -0.407559 0.088550 0.268194 -0.441120 -0.015744 0.578317 0.332898 -0.220506 0.058246 0.073311 -0.032855 -0.116799 0.384401 0.360697 0.193332 0.108068 0.156297 0.361716 -0.029763 0.275571 0.154523 -0.028783 -0.299262 -0.141090 -0.413024 -0.001021 -0.289130 -0.308929 -0.388798 -0.242371 0.137344 0.360562 0.010940 -0.018721 -0.179507 -0.039767 0.030006 0.282180 0.065810 -0.158709 0.064556 -0.017622 -0.078640 0.190135 0.077030 0.656869 -0.018144 0.111783 -0.301929 0.267863 -0.172765 -0.264289 -0.204259 0.047142 -0.569153 0.220265 0.062354 0.207480 -0.200584 -0.383936 0.343699 -0.128813 0.132703 0.374479 -0.253678 0.109034 0.033792 0.226076 -0.182553 -0.419453 0.357591 0.147062 0.129538 -0.015432 0.067652 -0.164489 0.371857 -0.280155 0.108672 0.177831 -0.018084 0.005549 -0.290558 -0.081176
支付 0.064118 -0.108018 -0.056069 0.379241 -0.164901 -0.085790 0.483497 -0.315359 -0.149291 0.131587 0.641474 -0.169519 0.184246 0.059659 0.240189 -0.132528 -0.376972 0.036117 0.208096 -0.340748 0.071652 0.498487 0.278980 -0.101055 0.025028 0.058986 -0.064196 -0.083867 0.253007 0.366974 0.129788 0.058181 0.170023 0.324209 -0.057350 0.271812 0.170492 -0.035867 -0.280833 -0.128336 -0.350295 -0.030372 -0.228437 -0.234706 -0.341798 -0.168746 0.157545 0.345265 0.071821 0.002993 -0.155428 -0.017747 0.060898 0.212620 0.106289 -0.128051 0.022618 -0.113697 -0.077868 0.264345 0.115076 0.572641 -0.036193 0.103203 -0.215364 0.238995 -0.125648 -0.160048 -0.168600 0.120867 -0.492882 0.206326 0.008773 0.161821 -0.109206 -0.290293 0.264770 -0.096684 0.112767 0.327284 -0.237035 0.114092 0.036525 0.204314 -0.138674 -0.388611 0.299986 0.125406 0.101625 -0.068772 0.111910 -0.139742 0.369478 -0.219748 0.077950 0.162589 0.014445 -0.017354 -0.235996 -0.079289
收到 0.043179 -0.115825 -0.067938 0.387171 -0.101386 -0.044736 0.407700 -0.222890 -0.109841 0.187165 0.610346 -0.173764 0.142967 -0.028329 0.250715 -0.125025 -0.436134 -0.044131 0.180163 -0.297939 0.000518 0.489581 0.255062 -0.086513 -0.030695 0.065595 -0.037277 -0.066801 0.291417 0.363709 0.087410 0.117685 0.228365 0.264393 -0.068134 0.220216 0.189483 -0.049240 -0.217424 -0.156134 -0.345713 -0.082430 -0.186682 -0.246361 -0.275279 -0.219897 0.120340 0.334647 0.065076 -0.058159 -0.101393 0.028476 0.000140 0.285389 0.073492 -0.067417 0.009292 0.004716 -0.052198 0.151828 0.112423 0.547677 -0.067762 0.116765 -0.304535 0.208914 -0.159823 -0.138977 -0.157952 0.084230 -0.493985 0.135974 0.081342 0.151972 -0.059470 -0.287488 0.282149 -0.081657 0.050286 0.377597 -0.205258 0.163319 0.006890 0.219376 -0.105089 -0.337740 0.271784 0.162594 0.054282 -0.089251 0.070342 -0.148232 0.293441 -0.188714 0.095430 0.171075 -0.063086 -0.013141 -0.224887 -0.136930
没有 0.083031 -0.113020 -0.073671 0.404494 -0.154242 -0.066445 0.492412 -0.311491 -0.139255 0.135116 0.659947 -0.175354 0.171519 0.029711 0.250834 -0.134671 -0.400955 0.028678 0.232358 -0.380119 0.024908 0.518454 0.301257 -0.127212 0.031394 0.070233 -0.061366 -0.116988 0.294500 0.398887 0.136585 0.065638 0.177431 0.336097 -0.081650 0.284541 0.176794 -0.034332 -0.291906 -0.153796 -0.371633 -0.056665 -0.239725 -0.254378 -0.356711 -0.181356 0.153284 0.349048 0.060152 -0.003111 -0.178959 -0.002064 0.049143 0.236437 0.097261 -0.140019 0.026951 -0.079906 -0.097217 0.266757 0.128947 0.591348 -0.040946 0.111128 -0.232728 0.230129 -0.121558 -0.190526 -0.170235 0.094772 -0.518107 0.208780 0.027368 0.168704 -0.128984 -0.331707 0.295402 -0.109897 0.099188 0.364857 -0.229277 0.125583 0.031990 0.227219 -0.156442 -0.403915 0.321232 0.126761 0.093411 -0.052391 0.107653 -0.154429 0.381102 -0.241391 0.084825 0.191870 -0.003590 -0.023856 -0.243908 -0.105604
为什么 0.094429 -0.111103 -0.085437 0.430506 -0.192623 -0.105883 0.537680 -0.350064 -0.159381 0.121446 0.711201 -0.181536 0.192572 0.042047 0.245369 -0.135660 -0.408702 0.046140 0.273119 -0.416191 0.048085 0.564976 0.338209 -0.156168 0.059416 0.093905 -0.072019 -0.129960 0.320534 0.422380 0.166176 0.048541 0.161984 0.369759 -0.076915 0.319520 0.190598 -0.030609 -0.317647 -0.156404 -0.388579 -0.044091 -0.271994 -0.268071 -0.399605 -0.176087 0.182674 0.389078 0.056068 -0.001549 -0.222645 -0.030590 0.074605 0.229331 0.092779 -0.169016 0.030183 -0.124834 -0.119199 0.328531 0.148113 0.626574 -0.024493 0.120053 -0.223199 0.263152 -0.105337 -0.238131 -0.184564 0.109138 -0.539349 0.254771 0.016965 0.184191 -0.166599 -0.357724 0.303541 -0.128165 0.104623 0.378339 -0.246377 0.096728 0.038231 0.253158 -0.185130 -0.436686 0.371043 0.124813 0.125038 -0.052697 0.137812 -0.144015 0.441924 -0.274597 0.085818 0.212565 0.010800 -0.025224 -0.272084 -0.089494
什么 0.126906 -0.119645 -0.101057 0.481400 -0.200273 -0.135117 0.595003 -0.404539 -0.184532 0.116209 0.812516 -0.209064 0.204884 0.046055 0.260056 -0.139260 -0.461409 0.068674 0.343019 -0.451540 0.058205 0.641256 0.389058 -0.188409 0.079693 0.109712 -0.121455 -0.160026 0.365103 0.460994 0.168536 0.025204 0.181753 0.388304 -0.062949 0.346067 0.195572 -0.002254 -0.364540 -0.173103 -0.438598 -0.036044 -0.317690 -0.319607 -0.450148 -0.180276 0.189891 0.440581 0.052177 -0.002433 -0.256089 -0.046312 0.100907 0.246031 0.085566 -0.201603 0.007946 -0.148281 -0.163271 0.410746 0.164719 0.702922 -0.028234 0.141942 -0.228468 0.319087 -0.087371 -0.302898 -0.203915 0.126053 -0.593445 0.286633 0.002608 0.218276 -0.199279 -0.408644 0.352911 -0.154674 0.131331 0.412305 -0.291845 0.087012 0.021330 0.299843 -0.217647 -0.494843 0.448810 0.144769 0.166687 -0.043476 0.173753 -0.148426 0.515830 -0.319290 0.110475 0.242097 0.010880 -0.000052 -0.300880 -0.083123
取消 0.085069 -0.093251 -0.068251 0.344133 -0.180068 -0.091931 0.485291 -0.323957 -0.136572 0.104964 0.613595 -0.146783 0.193110 0.077691 0.211429 -0.129367 -0.337583 0.111426 0.234322 -0.360390 0.080271 0.466764 0.291038 -0.111363 0.071439 0.039098 -0.084079 -0.085308 0.242954 0.342257 0.143820 0.018326 0.110644 0.333863 -0.064289 0.300614 0.154073 -0.029708 -0.301950 -0.142334 -0.323545 0.003438 -0.253629 -0.198126 -0.361688 -0.124660 0.158706 0.324203 0.055584 0.030519 -0.171873 -0.043186 0.059538 0.194506 0.094516 -0.165764 0.027050 -0.169809 -0.148635 0.305508 0.120902 0.518185 -0.033662 0.056592 -0.117690 0.211834 -0.099076 -0.179003 -0.131591 0.126774 -0.426438 0.230653 -0.054331 0.174198 -0.139441 -0.268701 0.226687 -0.109654 0.105087 0.296547 -0.213754 0.092795 0.062042 0.188775 -0.145495 -0.398119 0.303591 0.087618 0.099143 -0.042897 0.128553 -0.111613 0.376233 -0.221200 0.078381 0.154938 0.044387 -0.043051 -0.210820 -0.041844
司机 0.112700 -0.108952 -0.070726 0.448666 -0.209156 -0.129303 0.577161 -0.398307 -0.179334 0.093568 0.743200 -0.186036 0.221307 0.083511 0.256338 -0.149059 -0.413434 0.097425 0.333845 -0.441249 0.079478 0.601421 0.341953 -0.184491 0.086536 0.097251 -0.120615 -0.163222 0.302854 0.412683 0.179868 0.027075 0.161427 0.396873 -0.069265 0.352270 0.184801 -0.024279 -0.354589 -0.149981 -0.398162 -0.017455 -0.302411 -0.274219 -0.431724 -0.171828 0.188294 0.423415 0.082792 0.012808 -0.234244 -0.042870 0.093997 0.223845 0.086306 -0.186906 0.031539 -0.173290 -0.142593 0.387082 0.152070 0.639944 -0.041680 0.124371 -0.203166 0.297110 -0.098178 -0.255676 -0.197179 0.129779 -0.559612 0.304804 -0.004626 0.198761 -0.196167 -0.375987 0.307359 -0.130336 0.137995 0.376059 -0.276225 0.089226 0.055078 0.264215 -0.195949 -0.459365 0.402190 0.114105 0.125258 -0.053101 0.156943 -0.129659 0.494814 -0.282757 0.105662 0.223895 0.047046 -0.015981 -0.266560 -0.099358
不 0.098244 -0.121833 -0.081854 0.471882 -0.185402 -0.116122 0.577339 -0.389798 -0.159795 0.132534 0.772144 -0.196337 0.203931 0.047971 0.274162 -0.146875 -0.454291 0.051985 0.310453 -0.451528 0.054025 0.616772 0.354763 -0.172042 0.055586 0.089306 -0.118324 -0.139893 0.342885 0.456135 0.179492 0.045726 0.199645 0.377882 -0.092267 0.343963 0.193881 -0.011858 -0.343860 -0.178195 -0.416340 -0.054096 -0.295680 -0.298770 -0.432932 -0.195113 0.187082 0.443177 0.084714 -0.019424 -0.232999 -0.018894 0.067786 0.250612 0.086391 -0.181587 0.029194 -0.135681 -0.139065 0.347922 0.174089 0.673730 -0.047665 0.131932 -0.250479 0.286325 -0.112714 -0.238722 -0.210084 0.123493 -0.589210 0.280843 0.013495 0.198465 -0.170247 -0.383411 0.334401 -0.136724 0.126506 0.417800 -0.295303 0.117101 0.050568 0.268857 -0.183521 -0.478058 0.418607 0.147618 0.118122 -0.068584 0.161375 -0.165951 0.485967 -0.296427 0.114570 0.225217 0.010463 -0.014446 -0.277747 -0.115137
单 0.094678 -0.119696 -0.077826 0.435501 -0.185037 -0.101671 0.549091 -0.345522 -0.156557 0.135063 0.701006 -0.188040 0.183945 0.037202 0.245424 -0.142805 -0.417820 0.044790 0.281559 -0.410767 0.055485 0.562855 0.341370 -0.151598 0.053439 0.083656 -0.076022 -0.141600 0.314826 0.440565 0.162996 0.058955 0.179686 0.371306 -0.088435 0.324436 0.207596 -0.045538 -0.327644 -0.172886 -0.398896 -0.056911 -0.271256 -0.269417 -0.403817 -0.167485 0.189176 0.392015 0.062902 0.006912 -0.216694 -0.019787 0.079433 0.238513 0.095850 -0.184417 0.021226 -0.129410 -0.132162 0.331125 0.163428 0.624978 -0.030329 0.121602 -0.224765 0.265694 -0.094590 -0.240458 -0.177664 0.109267 -0.545261 0.258528 0.008727 0.194770 -0.160969 -0.369263 0.324771 -0.120964 0.098732 0.394002 -0.248074 0.110558 0.028275 0.250048 -0.192776 -0.445950 0.378277 0.133678 0.121349 -0.059534 0.146180 -0.164112 0.439516 -0.267973 0.068528 0.217968 0.002310 -0.044546 -0.267459 -0.090128
快车 0.108072 -0.096119 -0.072812 0.417057 -0.192307 -0.142412 0.557170 -0.396506 -0.180987 0.071947 0.735114 -0.164870 0.201083 0.075633 0.229207 -0.136775 -0.383416 0.103927 0.340321 -0.435764 0.083065 0.584096 0.326412 -0.181231 0.077275 0.108245 -0.118246 -0.175285 0.288104 0.376951 0.195674 0.015153 0.157335 0.376617 -0.061529 0.338724 0.164407 0.008094 -0.337604 -0.148496 -0.396174 -0.011274 -0.296115 -0.274582 -0.399823 -0.160258 0.183613 0.413388 0.076565 0.000875 -0.245668 -0.054288 0.093600 0.220208 0.064260 -0.195278 0.026560 -0.173221 -0.147359 0.392250 0.152354 0.610568 -0.033324 0.114275 -0.190354 0.308062 -0.069694 -0.256936 -0.196113 0.111121 -0.525178 0.304526 -0.006242 0.196045 -0.205590 -0.374731 0.288636 -0.133013 0.132634 0.354236 -0.278444 0.071471 0.041730 0.266491 -0.191689 -0.429592 0.394720 0.102359 0.139721 -0.060643 0.162649 -0.118699 0.505166 -0.283640 0.117032 0.217179 0.062436 -0.001919 -0.254786 -0.104811
在 0.112282 -0.105529 -0.086119 0.446406 -0.196640 -0.131416 0.581214 -0.388303 -0.174924 0.107029 0.754830 -0.193636 0.206864 0.058491 0.252782 -0.144578 -0.418288 0.091043 0.327279 -0.457111 0.067756 0.609836 0.353720 -0.180754 0.080909 0.093153 -0.102353 -0.169151 0.324831 0.435076 0.184103 0.040027 0.171218 0.396338 -0.086751 0.349191 0.195731 -0.021498 -0.350342 -0.171871 -0.418727 -0.027996 -0.304895 -0.280800 -0.426446 -0.183407 0.189555 0.427623 0.077648 0.000789 -0.249188 -0.039108 0.078044 0.236677 0.088115 -0.202609 0.022693 -0.157729 -0.150631 0.375489 0.166114 0.645588 -0.032022 0.123235 -0.214026 0.298790 -0.088132 -0.265673 -0.194655 0.114386 -0.562199 0.292350 -0.003243 0.205414 -0.195643 -0.384062 0.330863 -0.127898 0.122229 0.395729 -0.270368 0.100968 0.042241 0.274884 -0.199874 -0.464158 0.411256 0.120546 0.138073 -0.059386 0.157277 -0.143896 0.489429 -0.294841 0.091626 0.228928 0.031803 -0.024444 -0.283087 -0.096720
。 0.097589 -0.106248 -0.087177 0.447489 -0.195850 -0.113116 0.553594 -0.360460 -0.170625 0.126198 0.733868 -0.188938 0.204023 0.053290 0.256974 -0.138101 -0.424651 0.054596 0.291839 -0.422045 0.052135 0.585748 0.345039 -0.164559 0.053175 0.089783 -0.090414 -0.139077 0.327015 0.419816 0.169093 0.048256 0.167421 0.368276 -0.075367 0.319532 0.188071 -0.025311 -0.334611 -0.165911 -0.405115 -0.037087 -0.285212 -0.282359 -0.402567 -0.174085 0.182305 0.401671 0.061944 0.001283 -0.223561 -0.032753 0.076459 0.235813 0.092030 -0.173118 0.029415 -0.132122 -0.127511 0.333895 0.155013 0.643532 -0.032355 0.122880 -0.228156 0.276712 -0.101035 -0.246899 -0.187473 0.120643 -0.562160 0.267332 0.015908 0.199712 -0.173091 -0.373233 0.312719 -0.135262 0.114220 0.393521 -0.268262 0.096667 0.037394 0.262422 -0.190049 -0.450792 0.384192 0.129493 0.125762 -0.056888 0.147009 -0.143696 0.458273 -0.279406 0.097332 0.215966 0.012787 -0.020827 -0.282801 -0.089413
还 0.077164 -0.098141 -0.075973 0.407515 -0.168611 -0.083429 0.482956 -0.319725 -0.152279 0.123897 0.663267 -0.176308 0.170549 0.050505 0.238063 -0.126823 -0.391362 0.032361 0.249413 -0.378126 0.030635 0.531731 0.302709 -0.147689 0.037097 0.084080 -0.062995 -0.118810 0.306665 0.378675 0.159156 0.067877 0.158371 0.332808 -0.059392 0.287553 0.173475 -0.042950 -0.287876 -0.138164 -0.361538 -0.038819 -0.256062 -0.258350 -0.358469 -0.183949 0.162582 0.351657 0.044165 0.004853 -0.181977 -0.021105 0.062816 0.224560 0.077809 -0.145903 0.027048 -0.091768 -0.094659 0.267825 0.118916 0.583763 -0.024280 0.115860 -0.236078 0.249120 -0.111641 -0.223779 -0.173212 0.083521 -0.511829 0.223777 0.033394 0.175538 -0.152027 -0.344765 0.292037 -0.122703 0.106375 0.354769 -0.235955 0.092902 0.026323 0.231961 -0.167793 -0.401670 0.344142 0.120912 0.123900 -0.048374 0.116003 -0.139292 0.395649 -0.243301 0.083114 0.185094 -0.005258 -0.023565 -0.262324 -0.094444
都 0.082317 -0.105918 -0.080278 0.426051 -0.178696 -0.100559 0.514996 -0.337300 -0.160345 0.123694 0.698638 -0.181378 0.175682 0.045776 0.239098 -0.129075 -0.404346 0.042197 0.269003 -0.394808 0.034086 0.552772 0.328735 -0.150805 0.055858 0.086790 -0.076034 -0.127819 0.309746 0.407343 0.161275 0.056822 0.165941 0.351872 -0.075142 0.305640 0.186773 -0.033046 -0.306405 -0.149338 -0.383847 -0.037471 -0.267181 -0.275096 -0.376373 -0.172032 0.167488 0.378516 0.060471 -0.002242 -0.212604 -0.029179 0.078409 0.226249 0.082788 -0.158592 0.021214 -0.114183 -0.112459 0.307300 0.139920 0.613815 -0.020969 0.118330 -0.235748 0.266732 -0.096510 -0.240633 -0.174547 0.105768 -0.531511 0.245138 0.023740 0.177566 -0.163774 -0.359973 0.312887 -0.123318 0.100199 0.377215 -0.236821 0.093183 0.023406 0.247040 -0.188414 -0.423843 0.357455 0.122007 0.130840 -0.049120 0.124779 -0.139015 0.423722 -0.263456 0.082352 0.202065 0.006679 -0.025221 -0.269993 -0.084254
补偿 0.092792 -0.004137 -0.019250 0.418095 -0.149269 -0.112336 0.511685 -0.369573 -0.116677 0.070404 0.677276 -0.130938 0.294386 0.119792 0.221228 -0.145991 -0.313079 0.198030 0.313666 -0.393441 0.113944 0.468096 0.341299 -0.144463 0.168048 0.007932 -0.088451 -0.122081 0.229969 0.279757 0.266343 -0.047601 0.056038 0.415294 0.005140 0.285559 0.084066 0.028729 -0.387072 -0.119654 -0.325526 0.094269 -0.240301 -0.236926 -0.417807 -0.116941 0.191717 0.370283 -0.023767 0.061594 -0.103417 -0.081881 0.041441 0.271061 0.079116 -0.220897 0.084446 -0.165061 -0.252953 0.283025 0.049225 0.576081 -0.111029 0.006578 -0.020034 0.198437 -0.184158 -0.158732 -0.138263 0.109633 -0.415313 0.264934 -0.142560 0.216074 -0.219696 -0.265267 0.159604 -0.125837 0.180828 0.206021 -0.237499 0.010246 0.129407 0.150335 -0.162222 -0.340014 0.353826 0.063568 0.099586 -0.058989 0.125617 0.047103 0.408728 -0.196137 0.184458 0.140778 0.123792 -0.015829 -0.168885 -0.015541
你们 0.108183 -0.068770 -0.083397 0.434692 -0.220569 -0.193832 0.537475 -0.337880 -0.189440 0.038691 0.688688 -0.190739 0.179781 0.019681 0.169091 0.025406 -0.347965 -0.074324 0.294482 -0.336080 0.023343 0.577921 0.363697 -0.157464 -0.020699 0.186141 -0.026692 -0.083007 0.311721 0.393808 0.083892 -0.057641 0.101123 0.287614 0.060266 0.215909 0.128891 -0.008437 -0.235698 -0.090637 -0.382766 0.001380 -0.240318 -0.336013 -0.342101 -0.145956 0.212498 0.413938 -0.026413 -0.020124 -0.311199 -0.052503 0.201000 0.078599 0.025863 -0.107614 0.015750 -0.166854 -0.057211 0.398444 0.138218 0.639171 0.016833 0.143383 -0.177653 0.336367 -0.000228 -0.305962 -0.193741 0.202600 -0.550637 0.169518 0.062962 0.129961 -0.198064 -0.320624 0.281356 -0.198720 0.097229 0.338890 -0.234212 -0.021114 -0.017570 0.255933 -0.217598 -0.403619 0.347293 0.175722 0.268655 -0.042212 0.214848 -0.011108 0.493274 -0.277085 0.107766 0.220936 0.000905 0.032943 -0.318395 0.021639
接单 0.101251 -0.109984 -0.081654 0.424277 -0.192346 -0.110320 0.540934 -0.368105 -0.155383 0.116260 0.705063 -0.181771 0.197903 0.067116 0.252173 -0.144465 -0.403250 0.082051 0.300432 -0.424105 0.062958 0.564830 0.337522 -0.153794 0.077497 0.077964 -0.109664 -0.140923 0.298510 0.397386 0.157847 0.044860 0.174613 0.379932 -0.094702 0.327906 0.180954 -0.020279 -0.338353 -0.175133 -0.390089 -0.022522 -0.290151 -0.261559 -0.419439 -0.154169 0.169415 0.387442 0.069796 0.005022 -0.213706 -0.029911 0.062663 0.219833 0.085644 -0.189812 0.017583 -0.152100 -0.147917 0.356027 0.157137 0.606424 -0.044892 0.107715 -0.198439 0.271928 -0.100328 -0.246759 -0.177284 0.116424 -0.518025 0.274196 -0.017393 0.204271 -0.158135 -0.355126 0.295990 -0.124025 0.120637 0.360769 -0.261910 0.104206 0.043691 0.258165 -0.186122 -0.452169 0.386882 0.108709 0.110475 -0.047475 0.133965 -0.150649 0.444081 -0.272266 0.091085 0.205507 0.027336 -0.028948 -0.260943 -0.086315
时间 0.052851 -0.081630 -0.055279 0.462987 -0.135229 -0.072728 0.479116 -0.314261 -0.153966 0.148926 0.695219 -0.152046 0.155120 0.070735 0.231709 -0.153090 -0.380728 0.092684 0.269503 -0.411587 0.001980 0.551928 0.312593 -0.202759 0.070001 0.071104 -0.067226 -0.117083 0.349700 0.330695 0.186950 0.077543 0.144954 0.340765 -0.032280 0.278751 0.143863 -0.012222 -0.281788 -0.134530 -0.385308 0.006247 -0.282026 -0.281231 -0.360477 -0.220416 0.143159 0.352158 0.031895 -0.024919 -0.176907 -0.040091 0.034616 0.266214 0.052665 -0.139685 0.049715 -0.041287 -0.103248 0.211953 0.081194 0.612533 -0.025328 0.102531 -0.267524 0.268291 -0.149171 -0.257951 -0.189309 0.047324 -0.528241 0.233366 0.046039 0.205971 -0.191679 -0.355879 0.319233 -0.128286 0.117278 0.335662 -0.240013 0.088078 0.040290 0.229325 -0.167114 -0.393602 0.356063 0.123640 0.130354 -0.020893 0.079481 -0.156001 0.366829 -0.270057 0.118369 0.174461 0.006050 0.014238 -0.261883 -0.085127
可以 0.118197 -0.099553 -0.071826 0.459397 -0.193449 -0.145734 0.605754 -0.404656 -0.169242 0.099516 0.779213 -0.184315 0.223493 0.080349 0.266475 -0.158374 -0.424923 0.125903 0.357176 -0.477091 0.068197 0.619107 0.358969 -0.201031 0.087317 0.094906 -0.126989 -0.179584 0.310553 0.427241 0.190283 0.019320 0.178002 0.397222 -0.074271 0.375749 0.176471 -0.010291 -0.374581 -0.170101 -0.426886 -0.010756 -0.322432 -0.287267 -0.447268 -0.174087 0.182114 0.442829 0.082442 0.008506 -0.249662 -0.038802 0.074257 0.243526 0.076869 -0.210782 0.019311 -0.185477 -0.174057 0.403208 0.171968 0.657826 -0.054780 0.120729 -0.206156 0.314851 -0.090897 -0.276430 -0.200299 0.116236 -0.574612 0.316670 -0.017199 0.206572 -0.202793 -0.397145 0.316437 -0.128652 0.145325 0.386751 -0.307792 0.097861 0.054142 0.286144 -0.199664 -0.473791 0.427459 0.105359 0.130295 -0.056107 0.153966 -0.140055 0.516265 -0.300324 0.117728 0.224532 0.047007 -0.010446 -0.282764 -0.106068
元 0.092175 -0.102050 -0.081032 0.451249 -0.186453 -0.119124 0.535865 -0.340685 -0.162758 0.114201 0.710067 -0.188825 0.184761 0.034009 0.234662 -0.104336 -0.409785 0.015509 0.289099 -0.396634 0.037795 0.580230 0.347507 -0.155505 0.030509 0.113981 -0.067669 -0.127765 0.333859 0.427122 0.152980 0.036170 0.165173 0.348992 -0.045811 0.300294 0.178440 -0.026776 -0.306847 -0.150114 -0.402195 -0.045898 -0.260812 -0.287987 -0.376374 -0.185215 0.183800 0.406468 0.043539 -0.011731 -0.236530 -0.034836 0.093563 0.219850 0.078336 -0.157452 0.019807 -0.112568 -0.103812 0.333479 0.144340 0.631870 -0.024975 0.132411 -0.236381 0.287787 -0.084959 -0.253104 -0.194147 0.117209 -0.560600 0.231836 0.035205 0.177839 -0.173145 -0.361473 0.310214 -0.138305 0.103003 0.385345 -0.253531 0.088209 0.028173 0.254286 -0.191612 -0.435837 0.382152 0.148937 0.156644 -0.063484 0.149032 -0.124964 0.458667 -0.269920 0.102989 0.215540 0.000292 -0.015448 -0.279077 -0.077207
车费 0.100506 -0.045818 -0.068879 0.379164 -0.176077 -0.192423 0.455374 -0.269150 -0.157310 -0.010471 0.581420 -0.156556 0.143929 -0.020109 0.111413 0.080362 -0.277913 -0.130415 0.250036 -0.238728 0.009026 0.491435 0.328619 -0.098550 -0.058187 0.204304 0.008909 -0.030341 0.278423 0.358350 0.034444 -0.094211 0.053382 0.198143 0.101421 0.159167 0.082801 0.008378 -0.183500 -0.037796 -0.333929 0.008179 -0.175506 -0.318908 -0.268132 -0.095846 0.211239 0.355630 -0.050623 -0.013745 -0.289797 -0.070331 0.231938 0.018650 0.026417 -0.057568 0.010472 -0.169292 0.001516 0.338105 0.139786 0.555566 0.020833 0.154559 -0.140206 0.317295 0.055610 -0.288351 -0.152013 0.206419 -0.492109 0.093465 0.076674 0.066161 -0.171348 -0.262344 0.250678 -0.214560 0.092112 0.288772 -0.205748 -0.053035 -0.039690 0.235173 -0.206798 -0.330547 0.289680 0.153338 0.292214 -0.051807 0.212541 0.042575 0.461125 -0.231190 0.114614 0.192244 -0.003745 0.070208 -0.276096 0.075309
怎么办 0.094692 -0.103213 -0.069955 0.425723 -0.194535 -0.128211 0.560978 -0.391928 -0.179613 0.098208 0.734382 -0.167641 0.209347 0.083566 0.237822 -0.152925 -0.391567 0.119783 0.308809 -0.420338 0.098967 0.570304 0.311242 -0.154558 0.070566 0.073024 -0.114786 -0.153910 0.272282 0.377232 0.196202 0.019381 0.173079 0.370769 -0.074751 0.327734 0.159378 0.000469 -0.337197 -0.161888 -0.381487 -0.008307 -0.281212 -0.266002 -0.398914 -0.173251 0.182751 0.409033 0.099722 0.010398 -0.203122 -0.049392 0.064781 0.222951 0.088620 -0.183092 0.033980 -0.175157 -0.144757 0.352826 0.139955 0.614853 -0.046952 0.109802 -0.190663 0.283058 -0.109795 -0.213247 -0.183485 0.118012 -0.523754 0.291705 -0.017109 0.211210 -0.182928 -0.350802 0.275361 -0.129181 0.144482 0.350384 -0.297864 0.102791 0.062175 0.257781 -0.152597 -0.429161 0.370056 0.095769 0.110402 -0.060655 0.153621 -0.132782 0.468698 -0.273406 0.110583 0.198063 0.053650 -0.006954 -0.235797 -0.099604
没 0.092013 -0.113964 -0.078147 0.412440 -0.172280 -0.092644 0.517201 -0.331430 -0.150405 0.117983 0.680287 -0.182281 0.182807 0.045598 0.247934 -0.134479 -0.399599 0.049079 0.261198 -0.398489 0.042518 0.538225 0.318568 -0.144494 0.041983 0.073097 -0.079461 -0.134313 0.304032 0.397615 0.157818 0.058032 0.174259 0.352699 -0.083693 0.298992 0.189257 -0.033068 -0.313868 -0.148394 -0.371181 -0.047695 -0.255369 -0.265822 -0.371940 -0.175065 0.173505 0.369237 0.058540 0.002885 -0.198510 -0.009727 0.068068 0.228785 0.086723 -0.154349 0.029825 -0.111473 -0.110615 0.292590 0.138959 0.601532 -0.028830 0.109581 -0.226354 0.242459 -0.120222 -0.216079 -0.178841 0.091778 -0.532034 0.240767 0.024650 0.178773 -0.155951 -0.341345 0.293220 -0.119237 0.111274 0.365865 -0.242513 0.109193 0.038584 0.236235 -0.169007 -0.415778 0.350053 0.126811 0.117463 -0.049475 0.125603 -0.149208 0.416060 -0.260666 0.074434 0.198853 0.011543 -0.027546 -0.259443 -0.106125
账 0.044567 -0.040895 -0.039428 0.450830 -0.094780 -0.010046 0.351346 -0.240125 -0.148538 0.144046 0.589490 -0.155120 0.117279 0.074115 0.211146 -0.153957 -0.361571 0.072825 0.213988 -0.383876 -0.078123 0.478278 0.255969 -0.210920 0.064332 0.084602 0.007609 -0.076763 0.378837 0.262429 0.165949 0.145781 0.136408 0.258761 0.009224 0.203918 0.138986 -0.030370 -0.234144 -0.084608 -0.341571 0.015102 -0.220927 -0.301891 -0.283687 -0.240798 0.076733 0.269603 -0.015130 -0.042294 -0.130375 -0.020562 -0.008924 0.259070 0.024551 -0.091145 0.068517 0.067765 -0.029537 0.069086 0.012331 0.572771 -0.025462 0.071446 -0.295616 0.186256 -0.200704 -0.217285 -0.183117 0.019687 -0.522209 0.171471 0.084487 0.199232 -0.171288 -0.334344 0.280311 -0.113173 0.110562 0.318800 -0.205146 0.106471 0.049636 0.198987 -0.135317 -0.338230 0.295234 0.135906 0.109400 0.000459 0.022644 -0.143754 0.258705 -0.204145 0.111307 0.131953 -0.037356 0.018606 -0.256986 -0.100492
专车 0.087704 -0.072523 -0.069491 0.394066 -0.173138 -0.140410 0.541920 -0.362924 -0.160008 0.083170 0.719446 -0.178105 0.206721 0.063141 0.230963 -0.140903 -0.364121 0.125951 0.336615 -0.419557 0.078990 0.556658 0.310472 -0.194444 0.093838 0.091882 -0.119865 -0.191090 0.285498 0.362315 0.202945 0.009451 0.163939 0.369063 -0.037527 0.316007 0.150480 0.001851 -0.340606 -0.136805 -0.388491 0.013865 -0.275880 -0.273505 -0.380633 -0.177130 0.171262 0.414153 0.080246 -0.020229 -0.242041 -0.054878 0.089919 0.223848 0.042115 -0.172759 0.011226 -0.179463 -0.145371 0.375105 0.129765 0.570829 -0.049179 0.110674 -0.189064 0.294946 -0.074154 -0.263356 -0.193656 0.108522 -0.529376 0.300921 0.008536 0.179071 -0.215475 -0.369781 0.277857 -0.133423 0.131499 0.335953 -0.276176 0.063028 0.050237 0.270439 -0.196871 -0.414796 0.381443 0.080160 0.144071 -0.056427 0.150631 -0.120161 0.501726 -0.278828 0.116433 0.215271 0.069696 0.019004 -0.250032 -0.091246
给 0.080085 -0.092240 -0.073639 0.392505 -0.178813 -0.096345 0.493337 -0.330467 -0.142550 0.099566 0.655187 -0.169385 0.191670 0.051851 0.219363 -0.127974 -0.364453 0.054526 0.258304 -0.382687 0.056020 0.514595 0.300504 -0.145180 0.055446 0.072116 -0.079310 -0.125209 0.272960 0.381588 0.153157 0.036386 0.146266 0.330602 -0.069698 0.286746 0.173106 -0.031108 -0.302462 -0.144734 -0.352239 -0.036703 -0.245956 -0.240820 -0.361423 -0.152762 0.164090 0.356435 0.050623 0.010962 -0.197017 -0.023239 0.079929 0.206127 0.085198 -0.158784 0.021944 -0.123793 -0.113240 0.301315 0.131638 0.567554 -0.035541 0.101508 -0.192296 0.238891 -0.086353 -0.211618 -0.167585 0.104184 -0.492267 0.236077 0.010249 0.172406 -0.149251 -0.320332 0.272377 -0.106818 0.109792 0.335893 -0.233884 0.088711 0.037477 0.223459 -0.162914 -0.408372 0.341151 0.112488 0.115678 -0.054473 0.125515 -0.125808 0.417780 -0.244394 0.079952 0.193232 0.018395 -0.017549 -0.242664 -0.079046
提现 0.059962 -0.061243 -0.047465 0.483804 -0.150816 -0.062882 0.475050 -0.309020 -0.177204 0.146350 0.705749 -0.170168 0.155092 0.072821 0.233351 -0.156113 -0.395702 0.096183 0.284570 -0.434512 -0.024178 0.558044 0.311833 -0.233245 0.073947 0.088789 -0.053309 -0.131982 0.383116 0.324516 0.187738 0.102059 0.142870 0.337466 -0.019107 0.290342 0.151725 -0.025469 -0.293004 -0.112793 -0.390059 0.018451 -0.281490 -0.312947 -0.367037 -0.242714 0.132330 0.347463 0.011521 -0.032881 -0.189617 -0.040504 0.028847 0.267167 0.042033 -0.147840 0.057226 -0.023471 -0.089317 0.201110 0.066420 0.629595 -0.022794 0.105899 -0.289226 0.271845 -0.150762 -0.276073 -0.211053 0.040406 -0.568552 0.226895 0.052718 0.215130 -0.199055 -0.374162 0.324748 -0.140399 0.130411 0.345227 -0.257162 0.092870 0.040029 0.243635 -0.186682 -0.402103 0.357634 0.130996 0.139996 -0.005823 0.064178 -0.165389 0.383339 -0.276023 0.119531 0.177350 -0.010038 0.014789 -0.283501 -0.091525
被 0.126133 -0.139777 -0.083929 0.444778 -0.214389 -0.121841 0.538924 -0.387192 -0.185845 0.077535 0.755889 -0.183953 0.195721 0.086525 0.229404 -0.183177 -0.415298 0.066135 0.331995 -0.460806 0.068625 0.597290 0.339633 -0.186145 0.071324 0.093898 -0.102495 -0.167387 0.318618 0.409047 0.190522 0.035541 0.141358 0.394665 -0.094569 0.361565 0.192190 -0.011983 -0.358595 -0.173131 -0.401956 -0.022825 -0.361299 -0.285245 -0.438118 -0.171922 0.172431 0.416518 0.093782 0.010821 -0.238895 -0.025264 0.076241 0.238100 0.125130 -0.221691 0.037779 -0.138743 -0.156264 0.361301 0.171366 0.616097 -0.006295 0.130021 -0.194884 0.295328 -0.124208 -0.287341 -0.173975 0.088838 -0.514288 0.331849 -0.032368 0.227667 -0.221798 -0.379794 0.315455 -0.138326 0.109419 0.390646 -0.263135 0.092632 0.030389 0.288100 -0.173598 -0.433055 0.425410 0.094865 0.109359 -0.028026 0.145143 -0.169472 0.467307 -0.292362 0.068529 0.220670 0.023410 -0.065192 -0.301713 -0.104877
申请 0.027906 -0.046294 0.024040 0.406630 -0.112553 -0.059041 0.529832 -0.391844 -0.078419 0.025484 0.667218 -0.062901 0.307633 0.131455 0.146696 -0.137457 -0.287608 0.229678 0.323115 -0.396085 0.096799 0.454292 0.336752 -0.112490 0.187424 0.009106 -0.054195 -0.113391 0.184013 0.295763 0.251845 -0.086526 0.025135 0.399619 0.046651 0.260883 0.043926 0.074748 -0.323295 -0.147978 -0.328439 0.071813 -0.217849 -0.183871 -0.376708 -0.036727 0.182208 0.334330 -0.005305 0.074299 -0.109825 -0.113281 0.017865 0.219614 0.086902 -0.215016 0.074571 -0.199221 -0.256697 0.321365 0.050974 0.504226 -0.114064 0.039630 0.031675 0.169431 -0.179063 -0.115408 -0.101988 0.152976 -0.336100 0.291119 -0.150465 0.204787 -0.192183 -0.253878 0.140754 -0.079379 0.167935 0.172801 -0.208836 -0.006596 0.144593 0.096758 -0.172886 -0.280213 0.322842 0.082473 0.109383 -0.071158 0.152314 0.068865 0.378868 -0.167450 0.175749 0.092689 0.150458 -0.010837 -0.194204 -0.006443
活动 0.083325 -0.079916 -0.124852 0.452868 -0.098748 -0.118057 0.465360 -0.274955 -0.061968 0.167934 0.637707 -0.189677 0.124472 -0.040923 0.234310 -0.139933 -0.451074 0.011900 0.291267 -0.331451 -0.004511 0.535733 0.300073 -0.122533 0.050837 0.054945 -0.116508 -0.125131 0.330840 0.411739 0.094888 0.055921 0.219412 0.275837 -0.095115 0.285569 0.185097 0.017487 -0.264226 -0.176715 -0.352913 -0.083907 -0.272834 -0.226873 -0.351899 -0.174038 0.108651 0.391006 0.095100 -0.062597 -0.162653 0.027899 0.009083 0.269113 0.072962 -0.162846 -0.038539 -0.043137 -0.168504 0.308342 0.146063 0.551848 -0.107953 0.120386 -0.271494 0.228402 -0.061951 -0.227721 -0.172305 0.054295 -0.500145 0.171185 0.018561 0.200423 -0.112894 -0.317213 0.311516 -0.071305 0.048207 0.394086 -0.223533 0.141895 0.002809 0.243576 -0.158509 -0.425488 0.369096 0.171712 0.059490 -0.059589 0.124664 -0.167795 0.358411 -0.212376 0.106436 0.171473 -0.036634 0.021548 -0.201232 -0.139687
指派 0.134070 -0.147142 -0.092714 0.381126 -0.205072 -0.098847 0.521133 -0.376675 -0.157896 0.156416 0.709780 -0.179252 0.176620 0.067853 0.219532 -0.155106 -0.422607 0.074359 0.253524 -0.408759 0.091421 0.541357 0.352115 -0.119599 0.085289 0.066799 -0.119285 -0.085156 0.332804 0.412246 0.145753 0.038074 0.162026 0.388532 -0.105823 0.348919 0.220825 -0.028523 -0.332627 -0.211770 -0.379888 0.002738 -0.303789 -0.238156 -0.476185 -0.117928 0.196858 0.366337 0.068606 0.019540 -0.235940 -0.032720 0.066302 0.222921 0.119846 -0.205387 0.032834 -0.166466 -0.152047 0.378896 0.213190 0.635900 -0.003837 0.096915 -0.213240 0.261278 -0.099990 -0.243593 -0.142218 0.142315 -0.490733 0.269206 -0.027664 0.209587 -0.122759 -0.369527 0.301073 -0.151544 0.107822 0.390965 -0.253590 0.102035 0.019003 0.242704 -0.190983 -0.456529 0.399062 0.105858 0.098387 -0.008197 0.127234 -0.177375 0.435700 -0.300067 0.088793 0.219047 0.016678 -0.059556 -0.259014 -0.040836
计费 0.087129 -0.091630 -0.075587 0.364245 -0.184915 -0.137312 0.503519 -0.366615 -0.173007 0.032668 0.622545 -0.126848 0.198070 0.092984 0.200095 -0.129929 -0.315553 0.142413 0.321299 -0.379672 0.082933 0.487675 0.249741 -0.162770 0.095662 0.086892 -0.143774 -0.139370 0.199659 0.266673 0.188828 -0.013449 0.106337 0.329382 -0.024003 0.310643 0.113407 0.046154 -0.320057 -0.099735 -0.323077 0.037732 -0.222636 -0.232718 -0.326582 -0.128083 0.157609 0.349108 0.088191 -0.007524 -0.200370 -0.073681 0.079768 0.182847 0.055837 -0.159517 0.018479 -0.172253 -0.154031 0.346322 0.116521 0.510652 -0.058201 0.084115 -0.112790 0.292737 -0.058710 -0.205465 -0.140868 0.122625 -0.437066 0.295882 -0.011715 0.151599 -0.200122 -0.298516 0.201561 -0.125736 0.138031 0.264852 -0.268230 0.072270 0.070098 0.225789 -0.139851 -0.328854 0.335503 0.071432 0.107763 -0.065889 0.138344 -0.060549 0.450949 -0.238963 0.127087 0.166450 0.087870 0.005327 -0.188995 -0.072504
星级 0.090599 -0.098676 -0.057581 0.458874 -0.201112 -0.112701 0.583005 -0.380333 -0.158037 0.096436 0.748095 -0.193273 0.243985 0.085166 0.237848 -0.124842 -0.407734 0.091534 0.348833 -0.412608 0.064453 0.568196 0.358855 -0.185911 0.097382 0.089850 -0.125889 -0.161589 0.294819 0.413559 0.167126 0.017564 0.140909 0.400704 -0.040542 0.357577 0.143431 -0.004893 -0.378718 -0.135848 -0.386634 0.012742 -0.272484 -0.280293 -0.410553 -0.132771 0.176853 0.410765 0.060857 0.010639 -0.236640 -0.053888 0.094562 0.219616 0.085793 -0.202340 0.022798 -0.185493 -0.158892 0.380681 0.138168 0.632471 -0.061984 0.109236 -0.177924 0.274741 -0.097342 -0.211409 -0.196459 0.147562 -0.545531 0.312117 -0.031043 0.182385 -0.180650 -0.374706 0.276629 -0.154556 0.119776 0.373583 -0.290157 0.093168 0.079531 0.247094 -0.178686 -0.436787 0.437132 0.113244 0.128799 -0.091487 0.150512 -0.093489 0.492457 -0.288351 0.119415 0.200486 0.046036 -0.025314 -0.264188 -0.064953
！ 0.087017 -0.104169 -0.064387 0.430210 -0.165418 -0.101982 0.530227 -0.338377 -0.141237 0.122622 0.715611 -0.175394 0.202664 0.053394 0.245192 -0.152720 -0.422386 0.064353 0.276311 -0.392913 0.047195 0.555821 0.326022 -0.145055 0.060479 0.081968 -0.099132 -0.121394 0.308069 0.392152 0.159325 0.054537 0.181045 0.360141 -0.078718 0.309553 0.186007 -0.029856 -0.314079 -0.154865 -0.388819 -0.045894 -0.264818 -0.274429 -0.393613 -0.179816 0.175796 0.397207 0.070025 -0.003391 -0.177610 -0.025488 0.052703 0.247524 0.086031 -0.161498 0.020093 -0.105709 -0.117413 0.303177 0.140048 0.633089 -0.039639 0.112332 -0.233851 0.258512 -0.131921 -0.213266 -0.192700 0.099565 -0.547258 0.244599 0.010097 0.185628 -0.150733 -0.345849 0.298711 -0.120781 0.125404 0.372021 -0.263027 0.122646 0.049842 0.229546 -0.160511 -0.437472 0.367632 0.132505 0.116130 -0.057437 0.129753 -0.146344 0.417931 -0.244580 0.104755 0.185307 0.014065 -0.005294 -0.243942 -0.094117
请问 0.096225 -0.091077 -0.070936 0.397125 -0.178694 -0.112260 0.509646 -0.333125 -0.147719 0.091623 0.661191 -0.173613 0.189928 0.054066 0.216472 -0.129203 -0.373966 0.069942 0.284781 -0.394273 0.050859 0.525295 0.312847 -0.152976 0.068843 0.084844 -0.084745 -0.140838 0.285203 0.370766 0.161967 0.033479 0.143525 0.341433 -0.066609 0.305775 0.161541 -0.020774 -0.300559 -0.141148 -0.366415 -0.026227 -0.258822 -0.249722 -0.370305 -0.148880 0.167537 0.371159 0.054659 0.006935 -0.213022 -0.028199 0.080032 0.210771 0.078267 -0.171642 0.025154 -0.131212 -0.124878 0.332345 0.135871 0.568899 -0.024904 0.104954 -0.184942 0.250923 -0.080645 -0.229309 -0.171218 0.105225 -0.492409 0.254833 0.005812 0.183442 -0.172535 -0.339281 0.284820 -0.124335 0.109182 0.335503 -0.245192 0.075202 0.034987 0.237625 -0.177752 -0.406275 0.365470 0.111825 0.128679 -0.050199 0.138333 -0.122127 0.426134 -0.250495 0.088014 0.193614 0.030384 -0.019099 -0.252718 -0.079594
今天 0.094736 -0.104423 -0.079027 0.406905 -0.179554 -0.111281 0.518572 -0.340263 -0.144292 0.105729 0.670256 -0.173972 0.179410 0.050866 0.232050 -0.129658 -0.380405 0.059751 0.275889 -0.393330 0.045388 0.543541 0.326835 -0.154322 0.060183 0.092062 -0.077281 -0.131568 0.292983 0.395107 0.164111 0.042694 0.152385 0.356074 -0.079990 0.303986 0.176860 -0.031755 -0.306484 -0.149552 -0.371170 -0.035493 -0.269146 -0.260680 -0.375932 -0.159758 0.179771 0.377439 0.061133 0.006230 -0.216242 -0.031065 0.072349 0.210761 0.087039 -0.173354 0.019194 -0.123123 -0.120376 0.322725 0.147667 0.595654 -0.030272 0.116217 -0.208147 0.251400 -0.086706 -0.236074 -0.179592 0.104076 -0.512843 0.243919 0.014205 0.185502 -0.169128 -0.349831 0.299742 -0.126045 0.109672 0.356858 -0.236922 0.094180 0.037356 0.233584 -0.181807 -0.423434 0.359925 0.120274 0.122095 -0.050750 0.134899 -0.140658 0.430085 -0.262253 0.081206 0.205974 0.021463 -0.033161 -0.257043 -0.088142
打车 0.099323 -0.057742 -0.056444 0.342792 -0.179308 -0.128326 0.464978 -0.361632 -0.174892 0.035781 0.610409 -0.096545 0.175879 0.090432 0.165532 -0.110859 -0.265933 0.140109 0.329409 -0.376996 0.089424 0.474199 0.215418 -0.149799 0.089307 0.083879 -0.151189 -0.147217 0.217712 0.226653 0.167774 -0.004404 0.127845 0.293345 -0.026682 0.295476 0.085931 0.060761 -0.321333 -0.101567 -0.297480 0.038658 -0.199958 -0.195611 -0.314197 -0.138256 0.110580 0.349628 0.072810 -0.029404 -0.206371 -0.079295 0.094044 0.187508 0.029984 -0.153336 0.012760 -0.182166 -0.163684 0.352387 0.084543 0.457290 -0.061598 0.073118 -0.102455 0.293373 -0.057534 -0.198213 -0.153514 0.109985 -0.398652 0.299678 -0.032489 0.159104 -0.190807 -0.304154 0.166017 -0.101041 0.129044 0.257130 -0.293313 0.054563 0.049517 0.241798 -0.137567 -0.327561 0.299757 0.050864 0.086234 -0.071891 0.157181 -0.048770 0.437754 -0.206720 0.118454 0.154508 0.096900 0.021577 -0.190080 -0.080428
扣 0.061142 -0.016687 -0.050719 0.271312 -0.149731 -0.161619 0.328781 -0.185225 -0.131229 -0.020744 0.410963 -0.133816 0.088967 0.011343 0.082555 0.084878 -0.196709 -0.105703 0.172734 -0.160046 -0.009783 0.346645 0.239841 -0.093140 -0.057789 0.148653 0.017359 -0.016741 0.204518 0.233697 0.029721 -0.075843 0.028328 0.131913 0.089220 0.085296 0.048589 -0.011602 -0.106790 -0.024098 -0.235867 0.026744 -0.113867 -0.233630 -0.186639 -0.082503 0.136800 0.264937 -0.052636 -0.030878 -0.228011 -0.057374 0.179917 -0.016389 -0.013543 -0.046469 -0.017627 -0.117647 0.003099 0.276205 0.075593 0.396733 0.032901 0.106077 -0.107619 0.244610 0.041463 -0.207314 -0.101940 0.163775 -0.357758 0.072236 0.058873 0.045101 -0.149548 -0.178194 0.180348 -0.168324 0.052302 0.189480 -0.123877 -0.052656 -0.037719 0.179396 -0.158674 -0.232245 0.211678 0.131136 0.228278 -0.020708 0.158313 0.056371 0.324669 -0.176653 0.065485 0.158319 -0.003799 0.040602 -0.217124 0.058201
系统 0.102951 -0.157449 -0.083389 0.435194 -0.208034 -0.041353 0.585810 -0.378089 -0.176237 0.183025 0.748382 -0.189800 0.214585 0.064711 0.296072 -0.140988 -0.452366 0.074022 0.224548 -0.426414 0.063458 0.532401 0.337802 -0.100191 0.043444 0.071573 -0.081178 -0.079154 0.301421 0.447864 0.124324 0.068948 0.211376 0.374119 -0.089667 0.310169 0.203917 -0.070606 -0.318578 -0.173929 -0.402651 -0.049742 -0.267933 -0.293076 -0.398419 -0.195891 0.167819 0.354547 0.094165 0.015021 -0.203078 -0.017298 0.053995 0.292956 0.138335 -0.181298 0.046208 -0.133395 -0.130748 0.289018 0.176154 0.673463 -0.042651 0.121977 -0.234648 0.287651 -0.171278 -0.208381 -0.175198 0.151854 -0.541182 0.285290 -0.018953 0.207740 -0.119439 -0.331250 0.302866 -0.112653 0.135467 0.387192 -0.279108 0.174583 0.020184 0.256809 -0.178585 -0.474917 0.319272 0.152386 0.094432 -0.057730 0.106647 -0.158800 0.437720 -0.282626 0.063897 0.182926 0.002574 -0.023301 -0.298198 -0.080461
更改 0.125192 -0.071104 -0.012058 0.408808 -0.165475 -0.101267 0.580598 -0.379761 -0.133227 0.107649 0.688710 -0.163271 0.252341 0.087132 0.259741 -0.185072 -0.363755 0.168996 0.390247 -0.449324 0.090626 0.528485 0.351821 -0.234921 0.121291 0.056595 -0.172948 -0.200696 0.229765 0.374431 0.205481 -0.028716 0.138068 0.384543 -0.051236 0.367669 0.170638 -0.012421 -0.397998 -0.081723 -0.347550 0.063786 -0.228742 -0.243949 -0.383507 -0.126626 0.180802 0.434365 0.082030 0.011535 -0.199827 -0.037673 0.076461 0.261253 0.055270 -0.173006 0.019225 -0.214388 -0.150328 0.419421 0.148475 0.591213 -0.081408 0.143512 -0.149860 0.277735 -0.082007 -0.211420 -0.191204 0.092713 -0.507028 0.315520 0.005706 0.152165 -0.197917 -0.314687 0.251722 -0.095393 0.142696 0.292383 -0.364070 0.072262 0.116318 0.250196 -0.205847 -0.434874 0.477010 0.078870 0.104676 -0.094384 0.128007 -0.117014 0.464572 -0.239896 0.146870 0.211326 0.122498 0.003648 -0.214704 -0.095235
注册 0.096191 -0.074765 -0.060436 0.360574 -0.172132 -0.130690 0.492069 -0.336314 -0.149707 0.059818 0.640828 -0.148101 0.176996 0.074767 0.215490 -0.128339 -0.335764 0.098152 0.305491 -0.392377 0.060895 0.517871 0.294203 -0.174499 0.076598 0.094908 -0.112418 -0.162134 0.249179 0.337207 0.160930 0.004857 0.138829 0.331785 -0.053847 0.306658 0.136179 -0.001535 -0.309043 -0.127189 -0.344178 0.000836 -0.263700 -0.234855 -0.356629 -0.144597 0.153699 0.364209 0.072275 0.003766 -0.216652 -0.042242 0.073890 0.189121 0.058382 -0.171121 0.015766 -0.159023 -0.139477 0.350856 0.136457 0.533408 -0.028983 0.099130 -0.158757 0.272345 -0.063321 -0.227500 -0.170449 0.108020 -0.464984 0.262469 -0.005905 0.162599 -0.190163 -0.329220 0.257387 -0.114582 0.124295 0.300975 -0.250902 0.066718 0.034649 0.239017 -0.171078 -0.376383 0.351701 0.086352 0.116105 -0.055111 0.134470 -0.100376 0.442078 -0.239762 0.105790 0.199055 0.045051 -0.010907 -0.233580 -0.085882
接 0.094791 -0.099335 -0.066120 0.388078 -0.177472 -0.104461 0.496860 -0.327160 -0.148109 0.099789 0.651301 -0.172268 0.183014 0.052585 0.227882 -0.137402 -0.368668 0.058486 0.267172 -0.395374 0.056204 0.518427 0.309005 -0.145638 0.057578 0.080022 -0.075931 -0.134537 0.278450 0.391457 0.148417 0.043777 0.151242 0.350023 -0.091634 0.306557 0.179745 -0.043500 -0.309055 -0.154870 -0.351481 -0.028408 -0.270923 -0.240299 -0.370838 -0.146215 0.167396 0.356850 0.057909 0.016663 -0.210498 -0.034341 0.069043 0.202723 0.085716 -0.176204 0.020234 -0.137708 -0.118546 0.326284 0.147228 0.572023 -0.017015 0.108758 -0.199536 0.245930 -0.090875 -0.219738 -0.176397 0.105692 -0.488357 0.242195 -0.003582 0.180812 -0.157882 -0.340046 0.280952 -0.123805 0.097546 0.345009 -0.232283 0.083675 0.034851 0.228268 -0.177482 -0.421066 0.346412 0.107991 0.120433 -0.037091 0.131823 -0.146696 0.413066 -0.251855 0.073588 0.189427 0.021177 -0.037243 -0.243446 -0.079782
现在 0.087356 -0.092411 -0.074519 0.416508 -0.185474 -0.112835 0.516934 -0.347048 -0.164748 0.102397 0.683691 -0.175111 0.177180 0.056262 0.233129 -0.136904 -0.377165 0.065468 0.279555 -0.404990 0.045629 0.543237 0.308170 -0.169388 0.064567 0.091908 -0.085566 -0.144512 0.303922 0.373378 0.172526 0.042249 0.155339 0.341808 -0.069856 0.301970 0.167972 -0.023943 -0.312937 -0.139282 -0.376280 -0.021604 -0.271247 -0.266002 -0.374435 -0.173864 0.171027 0.370309 0.057635 -0.002093 -0.219905 -0.037048 0.072388 0.209684 0.076535 -0.163602 0.033946 -0.126544 -0.119229 0.311020 0.132880 0.597969 -0.029652 0.116064 -0.215250 0.269684 -0.095441 -0.238398 -0.188559 0.098861 -0.521942 0.245623 0.016135 0.182271 -0.177446 -0.354038 0.283606 -0.124505 0.116811 0.345171 -0.254096 0.090302 0.033219 0.249590 -0.174006 -0.408410 0.354019 0.109998 0.135211 -0.049136 0.125518 -0.137852 0.436656 -0.254915 0.090495 0.204972 0.026044 -0.015288 -0.257921 -0.091866
呢 0.079898 -0.096847 -0.073157 0.404907 -0.160139 -0.094363 0.484830 -0.309423 -0.148536 0.121066 0.666672 -0.160461 0.174206 0.034993 0.236051 -0.130247 -0.390338 0.058065 0.251688 -0.370367 0.046770 0.515516 0.287333 -0.143751 0.036321 0.074401 -0.080358 -0.121559 0.279141 0.371160 0.148880 0.043443 0.161092 0.321777 -0.059000 0.282674 0.159840 -0.008722 -0.287206 -0.144901 -0.354273 -0.029850 -0.241353 -0.247098 -0.350970 -0.175978 0.151022 0.356732 0.069462 -0.015801 -0.186594 -0.022808 0.051523 0.233380 0.080277 -0.145790 0.023976 -0.104359 -0.108327 0.282680 0.123234 0.569556 -0.048494 0.117879 -0.220815 0.244553 -0.105947 -0.195192 -0.161303 0.096454 -0.494180 0.235511 0.014358 0.169780 -0.139597 -0.324143 0.272010 -0.111594 0.103518 0.343066 -0.247536 0.103847 0.039770 0.234820 -0.155248 -0.384695 0.338471 0.112013 0.096818 -0.054513 0.115238 -0.134364 0.401914 -0.252259 0.099822 0.184010 0.018045 -0.011619 -0.229644 -0.089178
车 0.098877 -0.088573 -0.066909 0.415196 -0.182697 -0.127558 0.541330 -0.366145 -0.169068 0.089910 0.708541 -0.177422 0.199822 0.068807 0.227945 -0.130138 -0.382877 0.083055 0.320886 -0.414524 0.061386 0.568534 0.334017 -0.175179 0.080005 0.095275 -0.104388 -0.161445 0.289477 0.399000 0.175977 0.024274 0.155259 0.363252 -0.063505 0.325549 0.170939 -0.014532 -0.329955 -0.141773 -0.377153 -0.012345 -0.287309 -0.265597 -0.389174 -0.152645 0.179082 0.405530 0.061283 0.010256 -0.227887 -0.048965 0.085786 0.202204 0.067569 -0.179284 0.024549 -0.170463 -0.140765 0.369409 0.152016 0.603016 -0.027660 0.108190 -0.195576 0.285775 -0.081339 -0.251537 -0.181217 0.123533 -0.525912 0.277374 -0.005205 0.182303 -0.191601 -0.351492 0.294513 -0.133241 0.124460 0.348770 -0.258661 0.076705 0.035904 0.247597 -0.193212 -0.421423 0.380469 0.099357 0.141690 -0.050631 0.157120 -0.118339 0.472862 -0.268926 0.099089 0.213365 0.038122 -0.014115 -0.258985 -0.090086
费用 0.118202 -0.123446 -0.062871 0.465035 -0.197496 -0.131428 0.583405 -0.397030 -0.170927 0.095267 0.764798 -0.181895 0.205749 0.071223 0.255770 -0.113547 -0.419921 0.069434 0.325219 -0.419356 0.064986 0.616706 0.342216 -0.163901 0.052831 0.087464 -0.115265 -0.141933 0.320522 0.410177 0.156460 0.029349 0.175535 0.393708 -0.063873 0.321643 0.177732 -0.007184 -0.340135 -0.149876 -0.407595 -0.022820 -0.297546 -0.302113 -0.415087 -0.165918 0.209624 0.430764 0.061239 0.003802 -0.239748 -0.045189 0.105596 0.207176 0.081029 -0.180214 0.025939 -0.172281 -0.138497 0.377898 0.162271 0.670985 -0.038948 0.132871 -0.209402 0.305974 -0.104614 -0.255738 -0.201347 0.121433 -0.585613 0.266360 0.015259 0.203813 -0.183370 -0.360604 0.311448 -0.146134 0.143369 0.397706 -0.286899 0.080043 0.049865 0.260204 -0.193549 -0.471016 0.411108 0.129739 0.151386 -0.057368 0.164365 -0.133234 0.484107 -0.288962 0.104378 0.209924 0.040663 -0.001081 -0.278980 -0.076487
号 0.087069 -0.122755 -0.067706 0.433232 -0.199910 -0.126856 0.569181 -0.358452 -0.154793 0.114232 0.723325 -0.190156 0.204337 0.058802 0.232559 -0.147841 -0.420246 0.048954 0.324091 -0.442296 0.061520 0.586445 0.346055 -0.169577 0.069252 0.095769 -0.092911 -0.154781 0.335468 0.423225 0.183542 0.032380 0.166903 0.392232 -0.082558 0.330716 0.187466 -0.033157 -0.331257 -0.161272 -0.421981 -0.044810 -0.289827 -0.265534 -0.409816 -0.165036 0.208139 0.421714 0.061234 -0.002293 -0.252745 -0.030523 0.086789 0.243558 0.077509 -0.194433 0.020622 -0.127778 -0.145782 0.370801 0.174030 0.638137 -0.022593 0.109633 -0.227750 0.284139 -0.086230 -0.260343 -0.195546 0.113320 -0.551562 0.275867 0.038003 0.207047 -0.189677 -0.394367 0.330466 -0.136575 0.107881 0.379255 -0.277231 0.091836 0.040127 0.268336 -0.210515 -0.447462 0.400968 0.118779 0.145580 -0.065150 0.166805 -0.151386 0.480620 -0.270856 0.069622 0.231204 0.030861 -0.050408 -0.269164 -0.095210
能 0.102359 -0.101726 -0.078417 0.449896 -0.198812 -0.126626 0.571802 -0.384543 -0.172513 0.101969 0.756073 -0.181462 0.216895 0.064670 0.249011 -0.149230 -0.419181 0.095607 0.322793 -0.455164 0.064294 0.600786 0.355296 -0.181490 0.080572 0.090731 -0.101264 -0.156437 0.329361 0.421736 0.183413 0.033989 0.165041 0.390475 -0.071806 0.347920 0.180197 -0.011896 -0.350512 -0.165084 -0.410559 -0.022951 -0.301091 -0.289482 -0.423726 -0.165895 0.181980 0.414058 0.060159 0.009302 -0.227005 -0.040035 0.079862 0.245433 0.080146 -0.193932 0.024776 -0.149482 -0.159487 0.370327 0.149785 0.643708 -0.038812 0.121529 -0.210672 0.288932 -0.106780 -0.259876 -0.189110 0.115450 -0.559729 0.287155 -0.005488 0.210634 -0.204826 -0.377630 0.321107 -0.135476 0.133377 0.373967 -0.276426 0.089231 0.044270 0.264188 -0.197596 -0.459187 0.413996 0.120099 0.136570 -0.045268 0.150008 -0.133676 0.488224 -0.288602 0.103374 0.219197 0.040790 -0.009496 -0.275351 -0.089841
昨天 0.081936 -0.094307 -0.069028 0.380003 -0.158851 -0.101010 0.479482 -0.312505 -0.134426 0.096894 0.623902 -0.166194 0.170804 0.042080 0.206866 -0.115300 -0.354282 0.046968 0.262402 -0.367535 0.040431 0.508013 0.297665 -0.149223 0.053745 0.083780 -0.072581 -0.136420 0.279694 0.364426 0.148209 0.038034 0.139275 0.320820 -0.073032 0.287718 0.169784 -0.024661 -0.290275 -0.135488 -0.341601 -0.031102 -0.243963 -0.241532 -0.353555 -0.153654 0.159236 0.345540 0.050451 -0.004648 -0.196148 -0.020223 0.066218 0.205794 0.064673 -0.152238 0.022952 -0.116237 -0.119532 0.293178 0.130743 0.546738 -0.024058 0.101641 -0.189442 0.233570 -0.085074 -0.221939 -0.163535 0.089228 -0.473094 0.232392 0.018712 0.167163 -0.156951 -0.319777 0.277526 -0.109605 0.089315 0.338218 -0.226110 0.078787 0.033002 0.222995 -0.163956 -0.384204 0.345943 0.110692 0.113323 -0.047325 0.126383 -0.128526 0.397587 -0.239759 0.071782 0.186142 0.016935 -0.027120 -0.239081 -0.082284
车辆 0.096319 -0.046629 -0.007352 0.406107 -0.151224 -0.120924 0.556471 -0.383228 -0.124510 0.083391 0.685305 -0.172302 0.227517 0.098495 0.239172 -0.175813 -0.345456 0.167075 0.364688 -0.430057 0.096839 0.538034 0.314956 -0.210439 0.096276 0.075771 -0.134983 -0.199122 0.251627 0.364118 0.208952 -0.023607 0.147149 0.355147 -0.044126 0.341197 0.164994 -0.015302 -0.366678 -0.086780 -0.337200 0.039744 -0.237126 -0.245239 -0.391007 -0.137141 0.194103 0.402189 0.068879 0.033486 -0.215322 -0.045272 0.088922 0.233389 0.074299 -0.152810 0.024490 -0.218990 -0.153079 0.400855 0.171434 0.579117 -0.074226 0.115528 -0.155987 0.281262 -0.091771 -0.247931 -0.174702 0.119030 -0.509995 0.316662 -0.007097 0.136433 -0.201635 -0.313139 0.255671 -0.115464 0.131622 0.321025 -0.335600 0.095117 0.108291 0.239475 -0.164114 -0.424764 0.457756 0.064634 0.120863 -0.070067 0.136434 -0.111532 0.482345 -0.226358 0.126480 0.192442 0.101661 -0.024257 -0.248517 -0.109951
抢 0.105170 -0.131227 -0.068003 0.389242 -0.195486 -0.083869 0.454257 -0.340915 -0.163890 0.080734 0.659045 -0.162743 0.176409 0.066306 0.218572 -0.164599 -0.386728 0.046265 0.275294 -0.399878 0.036437 0.500941 0.300792 -0.174724 0.047877 0.082001 -0.099860 -0.127975 0.302440 0.369928 0.177496 0.041775 0.123732 0.356011 -0.094076 0.312605 0.177913 -0.021180 -0.310467 -0.146136 -0.354854 -0.027831 -0.322371 -0.246434 -0.380493 -0.129201 0.173075 0.337380 0.054942 0.021129 -0.201909 -0.020187 0.071240 0.225785 0.111427 -0.172285 0.020540 -0.097107 -0.151424 0.309070 0.171904 0.536526 -0.004993 0.128475 -0.172476 0.249888 -0.122783 -0.266276 -0.138419 0.062956 -0.453956 0.281713 -0.036119 0.199474 -0.175331 -0.350563 0.272373 -0.107564 0.068603 0.365657 -0.244203 0.082619 0.013704 0.257825 -0.164018 -0.366744 0.394522 0.097613 0.119971 -0.014932 0.127690 -0.147029 0.418213 -0.255068 0.051020 0.185916 -0.001550 -0.060722 -0.277853 -0.095481
和 0.124579 -0.128446 -0.089781 0.512058 -0.219847 -0.135726 0.646858 -0.435944 -0.189949 0.140821 0.852893 -0.220398 0.237754 0.056654 0.291323 -0.164329 -0.493962 0.076272 0.371616 -0.496669 0.066088 0.686741 0.409303 -0.196039 0.084318 0.114112 -0.129200 -0.169012 0.376141 0.489884 0.204223 0.046736 0.202004 0.448204 -0.091017 0.396916 0.214604 -0.016806 -0.388811 -0.185873 -0.479251 -0.032406 -0.335300 -0.312877 -0.485472 -0.188691 0.221613 0.482393 0.080219 0.002120 -0.281808 -0.044256 0.098516 0.279291 0.098710 -0.218548 0.018752 -0.179035 -0.176338 0.433659 0.196899 0.743428 -0.035831 0.146818 -0.247599 0.329040 -0.111113 -0.293917 -0.221079 0.136326 -0.640724 0.317000 -0.000906 0.235077 -0.215042 -0.434828 0.373730 -0.160716 0.134150 0.455792 -0.320984 0.109451 0.039084 0.296846 -0.221052 -0.525343 0.469293 0.140086 0.144807 -0.059549 0.177957 -0.157999 0.554039 -0.335753 0.116055 0.255894 0.028478 -0.036583 -0.317728 -0.096611
模式 0.145962 -0.105258 -0.077893 0.343038 -0.178554 -0.084450 0.470646 -0.341598 -0.142897 0.153977 0.625355 -0.169477 0.144033 0.050706 0.195971 -0.125436 -0.399396 0.055295 0.232832 -0.364209 0.060140 0.499089 0.301816 -0.113194 0.068358 0.072433 -0.127730 -0.074526 0.309540 0.374831 0.121452 0.029684 0.146919 0.344451 -0.075977 0.324434 0.194172 -0.026367 -0.306559 -0.195621 -0.330539 -0.019320 -0.296282 -0.202922 -0.431774 -0.098269 0.165839 0.321753 0.076501 0.030619 -0.217595 -0.050686 0.047461 0.205222 0.105296 -0.177926 0.002915 -0.151776 -0.160397 0.368827 0.201081 0.570077 -0.012938 0.091618 -0.163199 0.229219 -0.108726 -0.229042 -0.119583 0.119348 -0.419803 0.253324 -0.026400 0.208049 -0.123010 -0.331578 0.290576 -0.115672 0.063998 0.359624 -0.209994 0.082778 0.020020 0.193191 -0.153084 -0.406615 0.362805 0.082202 0.073120 0.014120 0.109159 -0.126216 0.399413 -0.275643 0.066407 0.188905 0.009302 -0.070952 -0.231325 -0.034273
处理 0.082391 -0.092345 -0.057181 0.381593 -0.160274 -0.105983 0.488361 -0.332308 -0.146862 0.095308 0.633689 -0.146700 0.195040 0.067855 0.215675 -0.123800 -0.347409 0.092519 0.273602 -0.371154 0.067179 0.492279 0.284214 -0.138892 0.053852 0.063572 -0.099091 -0.119191 0.237533 0.324067 0.160243 0.017298 0.128748 0.332245 -0.049595 0.295699 0.133529 0.001409 -0.306693 -0.118003 -0.339473 0.000937 -0.220775 -0.225665 -0.350770 -0.146539 0.162057 0.354182 0.065025 0.004403 -0.175750 -0.034783 0.077983 0.202364 0.081252 -0.147103 0.027985 -0.143228 -0.123072 0.306828 0.119197 0.542805 -0.041373 0.102530 -0.161517 0.243468 -0.083569 -0.187906 -0.158440 0.114511 -0.456693 0.240596 -0.013690 0.163382 -0.149286 -0.302822 0.223364 -0.113535 0.116883 0.298607 -0.259208 0.078041 0.066453 0.211272 -0.153449 -0.377324 0.338274 0.096892 0.113826 -0.060430 0.142150 -0.096490 0.403122 -0.224998 0.093052 0.173875 0.049226 -0.005415 -0.212568 -0.074333
就 0.108363 -0.115570 -0.086707 0.456868 -0.205763 -0.121043 0.574155 -0.393844 -0.179428 0.110784 0.764644 -0.190590 0.205795 0.068896 0.259011 -0.153595 -0.424242 0.074509 0.323693 -0.446612 0.068548 0.609447 0.359702 -0.168281 0.076142 0.098764 -0.109041 -0.158238 0.328917 0.438294 0.183310 0.045153 0.167776 0.398780 -0.092318 0.353656 0.193806 -0.025581 -0.350503 -0.173818 -0.414845 -0.032738 -0.316231 -0.287611 -0.433903 -0.183569 0.191279 0.417479 0.073368 0.016007 -0.232695 -0.040864 0.083036 0.238424 0.098345 -0.194975 0.026219 -0.150336 -0.146988 0.361956 0.162045 0.650541 -0.033975 0.126200 -0.225598 0.290830 -0.101880 -0.256170 -0.200025 0.112126 -0.565127 0.298847 -0.006139 0.209208 -0.193947 -0.385454 0.322240 -0.138444 0.120085 0.404380 -0.272279 0.100409 0.040295 0.272744 -0.190701 -0.468504 0.416994 0.125995 0.126897 -0.052945 0.149875 -0.158618 0.480558 -0.290803 0.088333 0.216431 0.026811 -0.035192 -0.280202 -0.099534
是否 0.101052 -0.099245 -0.088348 0.390220 -0.148088 -0.095894 0.478151 -0.310795 -0.119367 0.136809 0.637229 -0.174009 0.149767 0.035657 0.237074 -0.130329 -0.395506 0.092288 0.271969 -0.370798 0.064635 0.518090 0.302564 -0.129276 0.050612 0.052279 -0.114203 -0.113928 0.269028 0.371813 0.120250 0.024128 0.166164 0.311840 -0.091042 0.306873 0.178491 -0.012861 -0.307004 -0.185090 -0.353638 -0.037338 -0.271777 -0.205400 -0.366967 -0.150682 0.140092 0.350460 0.073089 -0.003152 -0.174873 -0.028812 0.028877 0.214792 0.078261 -0.179899 -0.008248 -0.131131 -0.155056 0.329252 0.169530 0.558140 -0.057355 0.089743 -0.195958 0.237628 -0.091916 -0.213762 -0.155014 0.100930 -0.464270 0.225437 -0.029757 0.180515 -0.121858 -0.300657 0.287387 -0.103925 0.100161 0.353032 -0.225011 0.120119 0.037837 0.217026 -0.148015 -0.415334 0.333043 0.110396 0.068704 -0.034992 0.146562 -0.149585 0.378059 -0.249131 0.096629 0.173561 0.021329 -0.018804 -0.220213 -0.070974
月 0.089947 -0.153600 -0.078042 0.449324 -0.233995 -0.153617 0.610712 -0.362464 -0.147109 0.107553 0.739101 -0.211275 0.246750 0.076809 0.260416 -0.153300 -0.426237 0.061505 0.364108 -0.485342 0.086378 0.623383 0.374336 -0.183558 0.086953 0.092970 -0.079206 -0.184924 0.331800 0.477151 0.204166 0.036613 0.200220 0.450420 -0.117681 0.345140 0.219521 -0.060094 -0.350946 -0.182230 -0.452312 -0.076380 -0.326929 -0.274442 -0.432246 -0.167706 0.243902 0.459756 0.044360 -0.002964 -0.279631 -0.051499 0.101396 0.272880 0.082808 -0.229757 0.017293 -0.151804 -0.165018 0.417759 0.203831 0.673021 -0.003613 0.098969 -0.215774 0.295903 -0.065011 -0.278740 -0.215921 0.127644 -0.571279 0.303172 0.044130 0.212059 -0.176722 -0.439258 0.355318 -0.156145 0.086902 0.409645 -0.271874 0.083200 0.059809 0.275715 -0.245879 -0.498140 0.407781 0.115238 0.139831 -0.085141 0.180468 -0.185344 0.496824 -0.266689 0.061078 0.245187 0.034489 -0.084425 -0.261236 -0.107165
一个 0.096518 -0.108762 -0.072329 0.398770 -0.176541 -0.098998 0.518173 -0.350360 -0.152806 0.105723 0.677485 -0.177546 0.190582 0.053227 0.233283 -0.144404 -0.385193 0.064714 0.273576 -0.401440 0.056299 0.533092 0.320798 -0.152749 0.066357 0.086608 -0.092107 -0.140920 0.283629 0.394386 0.165228 0.036711 0.149933 0.349720 -0.081479 0.317948 0.181953 -0.032952 -0.317111 -0.152665 -0.370326 -0.037967 -0.265191 -0.248080 -0.385006 -0.163711 0.163225 0.369750 0.059731 0.005535 -0.209254 -0.023425 0.076492 0.224536 0.091343 -0.166833 0.033281 -0.132696 -0.131811 0.333299 0.152588 0.588777 -0.030602 0.111275 -0.204591 0.260493 -0.088334 -0.230066 -0.178425 0.102780 -0.509805 0.253315 -0.000402 0.181461 -0.164405 -0.340633 0.296119 -0.124463 0.108348 0.359113 -0.246834 0.094478 0.039594 0.244518 -0.181706 -0.421907 0.368716 0.112501 0.109284 -0.042734 0.133058 -0.144564 0.435711 -0.259599 0.086783 0.200882 0.027674 -0.029783 -0.254898 -0.094439
也 0.099042 -0.110897 -0.080753 0.426805 -0.184543 -0.103353 0.533331 -0.357730 -0.169419 0.115667 0.708908 -0.185917 0.187683 0.059647 0.242784 -0.129920 -0.402391 0.063494 0.287858 -0.414206 0.049595 0.569633 0.328620 -0.161793 0.058268 0.085421 -0.090604 -0.137557 0.306249 0.413750 0.168686 0.040460 0.168611 0.363778 -0.071979 0.322735 0.185312 -0.033217 -0.316401 -0.161625 -0.383737 -0.038186 -0.281024 -0.269146 -0.397258 -0.170348 0.180563 0.395989 0.067364 0.000574 -0.216920 -0.034206 0.077485 0.225480 0.090692 -0.171015 0.030969 -0.137649 -0.121495 0.329034 0.152251 0.619376 -0.027414 0.115614 -0.214076 0.276906 -0.099476 -0.237459 -0.189221 0.104411 -0.534831 0.254261 0.012613 0.186878 -0.175537 -0.360625 0.312211 -0.128164 0.116699 0.376108 -0.259264 0.090220 0.039198 0.253179 -0.184355 -0.437745 0.379958 0.126983 0.124660 -0.045602 0.141578 -0.143812 0.445127 -0.271941 0.087977 0.212314 0.015690 -0.022386 -0.274140 -0.085708
跑 0.088404 -0.092250 -0.068315 0.380477 -0.169884 -0.115718 0.493233 -0.337610 -0.143282 0.083218 0.646206 -0.166061 0.175513 0.051337 0.209049 -0.129977 -0.357253 0.077105 0.282470 -0.384952 0.063375 0.523767 0.308601 -0.158219 0.066836 0.084553 -0.085180 -0.148731 0.270214 0.364037 0.158746 0.028180 0.151976 0.333257 -0.074287 0.305105 0.165403 -0.023172 -0.303760 -0.146299 -0.357264 -0.020044 -0.255172 -0.236887 -0.368411 -0.151707 0.169962 0.365826 0.068470 0.003270 -0.207459 -0.040263 0.073897 0.205889 0.067220 -0.164849 0.015196 -0.143276 -0.132966 0.331040 0.140341 0.554167 -0.032839 0.110398 -0.192148 0.253726 -0.077165 -0.230252 -0.170128 0.095192 -0.484138 0.250313 0.000878 0.172291 -0.174042 -0.332923 0.277628 -0.124287 0.102066 0.339186 -0.239012 0.087294 0.039997 0.236216 -0.173237 -0.393583 0.355659 0.104345 0.117011 -0.054097 0.141144 -0.130437 0.430219 -0.250174 0.082376 0.194491 0.030438 -0.019743 -0.236455 -0.093104
合法 0.100592 -0.055840 -0.076501 0.333717 -0.139681 -0.176686 0.457968 -0.338109 -0.207522 0.051037 0.577340 -0.098456 0.154012 0.038281 0.139596 -0.112603 -0.296913 0.179786 0.297715 -0.355847 0.114638 0.512566 0.213904 -0.136545 0.076222 0.094263 -0.141850 -0.196915 0.208779 0.234562 0.212661 0.028878 0.136407 0.291167 -0.063871 0.276455 0.058540 0.087558 -0.273199 -0.124818 -0.277723 0.047023 -0.274270 -0.210510 -0.302327 -0.187524 0.153051 0.288294 0.127597 0.019340 -0.194156 -0.080277 0.057224 0.152808 0.022679 -0.164024 0.020252 -0.155157 -0.122882 0.323795 0.089567 0.437188 -0.050229 0.079503 -0.143758 0.239667 -0.034475 -0.171987 -0.136855 0.085527 -0.391827 0.293361 0.002258 0.195669 -0.169157 -0.301561 0.265665 -0.109301 0.149397 0.256934 -0.255071 0.086521 0.058633 0.240471 -0.096286 -0.274366 0.275062 0.077006 0.096560 -0.100301 0.142436 -0.119575 0.396769 -0.261527 0.093829 0.191942 0.091173 0.023590 -0.172433 -0.112820
钱 0.086667 -0.094180 -0.076148 0.413478 -0.173724 -0.116850 0.506364 -0.334656 -0.154637 0.087271 0.674776 -0.167086 0.175296 0.043875 0.224797 -0.107155 -0.378950 0.050420 0.279509 -0.379394 0.039041 0.535407 0.324194 -0.156315 0.045623 0.091791 -0.080069 -0.119720 0.294622 0.370714 0.152132 0.029406 0.149200 0.335657 -0.039558 0.292537 0.151212 -0.008672 -0.292220 -0.133107 -0.366591 -0.013523 -0.256601 -0.273027 -0.360754 -0.161315 0.170287 0.378712 0.050221 -0.000952 -0.225978 -0.032722 0.089528 0.194055 0.071021 -0.149649 0.022177 -0.132950 -0.105940 0.320066 0.135968 0.586776 -0.029617 0.119006 -0.203458 0.264783 -0.073248 -0.237647 -0.180431 0.115345 -0.516328 0.229182 0.014047 0.166594 -0.169664 -0.329933 0.278674 -0.139436 0.110006 0.347083 -0.245155 0.071721 0.036837 0.242511 -0.181638 -0.411140 0.362560 0.118482 0.143090 -0.054060 0.134944 -0.114671 0.428146 -0.264369 0.097013 0.202201 0.018593 -0.011593 -0.247617 -0.065842
哪些 0.062024 -0.057226 -0.081849 0.328639 -0.077424 -0.070449 0.350774 -0.227486 -0.043039 0.129648 0.480185 -0.141427 0.105558 -0.025125 0.195962 -0.101159 -0.326551 0.028493 0.224016 -0.249298 -0.000512 0.393434 0.227194 -0.108464 0.026409 0.038190 -0.086364 -0.095058 0.223599 0.292708 0.072395 0.023714 0.149412 0.224992 -0.083734 0.207729 0.121316 0.021000 -0.213663 -0.143375 -0.256099 -0.067828 -0.200336 -0.167992 -0.257191 -0.126773 0.079160 0.277385 0.046404 -0.047061 -0.101667 0.008201 -0.001440 0.185554 0.058983 -0.125011 -0.017277 -0.031268 -0.114494 0.232693 0.108779 0.425260 -0.075983 0.093126 -0.202379 0.177030 -0.052396 -0.153770 -0.126570 0.062130 -0.379036 0.145492 -0.003514 0.139429 -0.078926 -0.239148 0.242639 -0.055009 0.060626 0.280919 -0.152240 0.099544 0.001592 0.168260 -0.114457 -0.313308 0.269831 0.114549 0.030047 -0.024083 0.115722 -0.128220 0.265508 -0.173620 0.076179 0.131448 -0.020241 0.018014 -0.146348 -0.075010
播报 0.055836 -0.116685 -0.075814 0.267810 -0.135036 -0.018274 0.374914 -0.230147 -0.114999 0.128363 0.498762 -0.142331 0.134290 0.011498 0.187508 -0.131242 -0.300745 0.051713 0.103223 -0.264628 0.043698 0.369637 0.180781 -0.073049 0.021463 0.020283 -0.049611 -0.056558 0.191138 0.285153 0.103950 0.079316 0.132778 0.256435 -0.078526 0.220866 0.132383 -0.059385 -0.218911 -0.131533 -0.255575 -0.018724 -0.180196 -0.150995 -0.259773 -0.145396 0.093815 0.216726 0.060769 -0.001267 -0.140740 -0.004431 0.041574 0.198544 0.103857 -0.087559 0.045153 -0.070859 -0.080072 0.190051 0.097293 0.432927 -0.010105 0.054499 -0.158700 0.199291 -0.119147 -0.110984 -0.096073 0.100510 -0.341476 0.144213 -0.019914 0.111065 -0.049393 -0.203298 0.218767 -0.091868 0.066112 0.264092 -0.167405 0.128804 0.006928 0.175759 -0.082224 -0.310952 0.190909 0.074745 0.045210 -0.019568 0.050796 -0.127400 0.269038 -0.189520 0.062105 0.144224 0.007286 -0.019536 -0.190406 -0.046117
推荐 0.057450 -0.082196 -0.069733 0.344269 -0.115847 -0.059111 0.402644 -0.247814 -0.110232 0.107081 0.544967 -0.143811 0.145360 0.013537 0.202772 -0.106101 -0.348023 0.012115 0.203184 -0.311138 0.022310 0.432960 0.246504 -0.107658 0.019311 0.064475 -0.060046 -0.095178 0.251336 0.323070 0.115468 0.058691 0.164549 0.258086 -0.066566 0.239038 0.153144 -0.024590 -0.237212 -0.126278 -0.311054 -0.055182 -0.204442 -0.208788 -0.279939 -0.153550 0.123719 0.305533 0.048565 -0.019130 -0.137113 -0.002074 0.038130 0.212221 0.068508 -0.106256 0.010071 -0.053334 -0.084946 0.217501 0.112242 0.487241 -0.040811 0.095911 -0.215821 0.193777 -0.098746 -0.155896 -0.139595 0.072375 -0.442056 0.166429 0.029896 0.140466 -0.098027 -0.272998 0.246160 -0.079882 0.073619 0.312469 -0.200693 0.110175 0.028422 0.186433 -0.133336 -0.327168 0.273797 0.108723 0.069936 -0.057990 0.092887 -0.127290 0.314755 -0.199257 0.082298 0.154104 -0.008773 -0.009247 -0.194356 -0.105665
会 0.096206 -0.097876 -0.083610 0.416440 -0.182421 -0.124738 0.524224 -0.354806 -0.153572 0.096012 0.690960 -0.182981 0.186131 0.048450 0.228314 -0.136175 -0.395044 0.068001 0.303137 -0.392994 0.049564 0.561186 0.316116 -0.164562 0.069368 0.084275 -0.100172 -0.141631 0.298420 0.392530 0.159139 0.025522 0.158932 0.348148 -0.077200 0.307666 0.166453 -0.008958 -0.323482 -0.158480 -0.378644 -0.018058 -0.278009 -0.259711 -0.384439 -0.154956 0.164231 0.392629 0.061426 -0.008078 -0.221986 -0.039746 0.071657 0.222313 0.078255 -0.178695 0.021599 -0.137089 -0.136139 0.352798 0.154246 0.594177 -0.038720 0.120681 -0.199277 0.269410 -0.082266 -0.244416 -0.169889 0.101877 -0.508477 0.268431 -0.001012 0.188497 -0.174787 -0.344778 0.296103 -0.130100 0.106029 0.355637 -0.253187 0.091556 0.031805 0.256007 -0.178474 -0.417180 0.383815 0.110935 0.128156 -0.049574 0.152133 -0.132100 0.453894 -0.268711 0.102653 0.208042 0.029397 -0.009215 -0.256433 -0.088331
查询 0.100857 -0.110233 -0.066603 0.447374 -0.202024 -0.122664 0.554409 -0.361496 -0.160714 0.096818 0.724781 -0.175331 0.208487 0.058093 0.252368 -0.138291 -0.394476 0.081698 0.315938 -0.422303 0.062598 0.561466 0.345169 -0.174837 0.060108 0.100198 -0.101927 -0.141576 0.314393 0.404094 0.177966 0.012512 0.151321 0.367254 -0.063062 0.337095 0.159099 -0.008747 -0.346812 -0.151673 -0.400673 -0.007072 -0.277224 -0.281693 -0.403224 -0.164641 0.178479 0.415916 0.054573 0.004800 -0.235895 -0.042913 0.089311 0.223400 0.083974 -0.173392 0.035020 -0.159618 -0.134257 0.347385 0.143294 0.630549 -0.038872 0.116401 -0.197617 0.285388 -0.085900 -0.238990 -0.185329 0.131101 -0.530257 0.274827 -0.006823 0.199384 -0.186763 -0.357964 0.282057 -0.133611 0.127286 0.365781 -0.281559 0.081361 0.049408 0.245687 -0.195644 -0.441456 0.399458 0.124332 0.127617 -0.054656 0.154990 -0.113363 0.477487 -0.286411 0.110312 0.215424 0.049060 -0.027216 -0.274376 -0.081343
是不是 0.057716 -0.123185 -0.149305 0.374075 -0.217737 -0.234821 0.493154 -0.424328 -0.253948 -0.018507 0.786942 -0.075849 0.112942 0.060299 0.149628 -0.251606 -0.286256 0.175093 0.370185 -0.359451 0.164934 0.576554 0.243781 -0.212832 0.071160 0.052168 -0.095394 -0.229449 0.259956 0.215180 0.274288 -0.068321 0.251144 0.269250 -0.064998 0.306375 0.111233 0.107044 -0.295453 -0.219690 -0.411722 0.048235 -0.282747 -0.260441 -0.338002 -0.193749 0.126498 0.481601 0.210663 -0.095436 -0.274702 -0.145444 0.042219 0.190648 0.026314 -0.140529 0.040337 -0.252303 -0.167563 0.330034 0.139733 0.526145 -0.052647 0.164561 -0.193981 0.420133 -0.015788 -0.252749 -0.210346 0.093554 -0.495426 0.309063 0.079636 0.286930 -0.301353 -0.369241 0.202087 -0.206422 0.229249 0.325404 -0.401763 0.112054 0.086636 0.357046 -0.073008 -0.336028 0.297748 -0.022216 0.057866 -0.052704 0.168000 -0.163041 0.580148 -0.286888 0.215908 0.245626 0.104870 0.043889 -0.137610 -0.152155
改派 0.095614 -0.110790 -0.086848 0.403287 -0.180427 -0.120071 0.522758 -0.349122 -0.150316 0.100420 0.693094 -0.183688 0.178894 0.047350 0.231259 -0.146657 -0.389991 0.075712 0.288764 -0.401372 0.058002 0.549569 0.318579 -0.157156 0.077365 0.080652 -0.100721 -0.132824 0.289563 0.399615 0.159939 0.026339 0.152549 0.346698 -0.092811 0.310257 0.175809 -0.017613 -0.320721 -0.161033 -0.364593 -0.037188 -0.285618 -0.255717 -0.394562 -0.143303 0.172690 0.378807 0.060782 0.006632 -0.197027 -0.040071 0.061542 0.210571 0.094211 -0.184767 0.012743 -0.124827 -0.152358 0.343410 0.147386 0.599923 -0.031795 0.104817 -0.187117 0.253353 -0.085698 -0.243060 -0.171461 0.092037 -0.512413 0.262790 -0.021287 0.195404 -0.175714 -0.340056 0.289365 -0.118687 0.107689 0.349818 -0.241623 0.091041 0.037793 0.239312 -0.164334 -0.424893 0.388327 0.118229 0.112730 -0.043466 0.139182 -0.146114 0.433686 -0.264036 0.090281 0.200559 0.023449 -0.015721 -0.243552 -0.083108
已经 0.096954 -0.112291 -0.077633 0.449561 -0.198333 -0.115158 0.563121 -0.380322 -0.174017 0.111119 0.736593 -0.182664 0.207726 0.069605 0.249528 -0.145542 -0.413847 0.080814 0.313643 -0.435554 0.058038 0.592767 0.346754 -0.170805 0.070203 0.091163 -0.102364 -0.156331 0.320737 0.425669 0.187205 0.038601 0.170000 0.392065 -0.073733 0.337323 0.187376 -0.031275 -0.348241 -0.160868 -0.409445 -0.026129 -0.295661 -0.286528 -0.410176 -0.180891 0.190039 0.411507 0.064996 0.007463 -0.232277 -0.031696 0.074795 0.236487 0.092630 -0.187004 0.033748 -0.139536 -0.141416 0.355720 0.151020 0.649436 -0.028552 0.117715 -0.224190 0.282459 -0.102374 -0.255921 -0.197761 0.108363 -0.560736 0.280585 0.000776 0.200529 -0.183607 -0.379248 0.320959 -0.134180 0.126259 0.389276 -0.268273 0.090721 0.042307 0.262349 -0.197176 -0.451836 0.397771 0.116564 0.128737 -0.059806 0.144451 -0.143482 0.468564 -0.277809 0.098343 0.214878 0.027653 -0.020950 -0.277518 -0.100171
啊 0.084106 -0.093011 -0.067224 0.404516 -0.156589 -0.089826 0.487393 -0.313050 -0.149800 0.110059 0.652714 -0.162279 0.178606 0.039278 0.230075 -0.126806 -0.375497 0.054654 0.264918 -0.368555 0.040491 0.513075 0.293376 -0.151243 0.037680 0.076502 -0.080165 -0.119451 0.287683 0.359504 0.154372 0.046356 0.168954 0.317650 -0.058421 0.284194 0.158446 -0.013778 -0.284108 -0.138816 -0.354337 -0.025322 -0.245421 -0.251048 -0.346579 -0.167780 0.156631 0.357651 0.066347 -0.004563 -0.180995 -0.024606 0.060758 0.225947 0.073121 -0.135367 0.028215 -0.102018 -0.102131 0.287790 0.132746 0.579136 -0.041690 0.112087 -0.215070 0.254706 -0.103394 -0.208460 -0.166423 0.101955 -0.503938 0.225159 0.018032 0.176945 -0.142146 -0.321451 0.278619 -0.111366 0.112981 0.340368 -0.250412 0.105935 0.036640 0.231290 -0.156924 -0.385825 0.333712 0.112219 0.109142 -0.063311 0.118529 -0.128518 0.401086 -0.239704 0.105418 0.183380 0.016744 -0.010896 -0.232930 -0.090115
要 0.106215 -0.110915 -0.076240 0.456776 -0.202995 -0.128417 0.597400 -0.389668 -0.168034 0.113387 0.769459 -0.192057 0.214768 0.071063 0.254953 -0.139158 -0.429862 0.072752 0.328709 -0.451514 0.071645 0.614670 0.365250 -0.178999 0.069838 0.095841 -0.100616 -0.154556 0.321189 0.431645 0.180849 0.033888 0.169533 0.396663 -0.065261 0.340660 0.189715 -0.016145 -0.356697 -0.157645 -0.426582 -0.029647 -0.297606 -0.296580 -0.429134 -0.174701 0.198053 0.431330 0.062355 0.004903 -0.243871 -0.041061 0.087157 0.234840 0.089314 -0.190084 0.028838 -0.163243 -0.144827 0.380189 0.166799 0.666386 -0.034192 0.125564 -0.213065 0.303053 -0.099375 -0.255741 -0.193985 0.126596 -0.580988 0.288507 0.004807 0.203809 -0.198132 -0.390138 0.314479 -0.138849 0.131198 0.392414 -0.287385 0.092028 0.046875 0.275224 -0.204778 -0.469992 0.421561 0.131401 0.143167 -0.060064 0.165815 -0.131420 0.502870 -0.288627 0.103960 0.225618 0.032644 -0.018013 -0.288881 -0.087730
抢单 0.113487 -0.114620 -0.069230 0.359423 -0.176375 -0.090636 0.456554 -0.325512 -0.138587 0.101641 0.626206 -0.158628 0.165786 0.052695 0.205210 -0.134574 -0.371050 0.042800 0.252016 -0.372068 0.059482 0.495902 0.302864 -0.139215 0.055630 0.082800 -0.093704 -0.109063 0.282671 0.365760 0.137459 0.033269 0.137845 0.335294 -0.074658 0.292755 0.171361 -0.022679 -0.286825 -0.152403 -0.338157 -0.017138 -0.276548 -0.233145 -0.377313 -0.135618 0.157632 0.338625 0.065814 0.003151 -0.201675 -0.030090 0.059989 0.200843 0.093577 -0.179332 0.024954 -0.121959 -0.131127 0.323584 0.169975 0.550723 -0.005435 0.111335 -0.190380 0.239523 -0.092575 -0.229126 -0.137375 0.100019 -0.442054 0.249348 -0.019499 0.185839 -0.144665 -0.331302 0.272109 -0.128099 0.094375 0.348654 -0.223725 0.082411 0.019953 0.226967 -0.163112 -0.377674 0.363765 0.094163 0.096342 -0.028978 0.124593 -0.141550 0.392605 -0.254384 0.077240 0.196236 0.019092 -0.048304 -0.238654 -0.059557
不能 0.099008 -0.100667 -0.079034 0.414134 -0.180633 -0.117928 0.532786 -0.350011 -0.160686 0.099336 0.690938 -0.178495 0.189477 0.059183 0.238221 -0.127619 -0.384754 0.084524 0.294466 -0.416329 0.066062 0.549621 0.328657 -0.161824 0.062736 0.083006 -0.099099 -0.148218 0.298154 0.399619 0.171069 0.029965 0.159823 0.362260 -0.074282 0.323255 0.171713 -0.025994 -0.327386 -0.143755 -0.371721 -0.026976 -0.281648 -0.265187 -0.394688 -0.158568 0.186078 0.390621 0.065294 0.005250 -0.219642 -0.032286 0.072983 0.214011 0.082397 -0.179440 0.025389 -0.149619 -0.133623 0.343545 0.152903 0.595949 -0.035499 0.116656 -0.195054 0.264173 -0.084880 -0.229607 -0.182762 0.102045 -0.516950 0.275565 0.001825 0.189125 -0.178736 -0.357033 0.287876 -0.125523 0.115069 0.352010 -0.259972 0.087611 0.041501 0.241193 -0.173824 -0.427976 0.372541 0.102694 0.128059 -0.050170 0.134759 -0.133251 0.456284 -0.271402 0.092037 0.200814 0.030484 -0.027360 -0.263791 -0.091277
想 0.089398 -0.092639 -0.064467 0.398890 -0.184045 -0.119406 0.519652 -0.341050 -0.150595 0.088033 0.661874 -0.168703 0.193626 0.063432 0.229186 -0.131309 -0.361293 0.075270 0.287174 -0.408123 0.052107 0.537190 0.316855 -0.173442 0.070791 0.092629 -0.089410 -0.148623 0.275211 0.383582 0.165137 0.024701 0.147094 0.354295 -0.064090 0.309980 0.168875 -0.020505 -0.314665 -0.135884 -0.369431 -0.021173 -0.265698 -0.253352 -0.376545 -0.149306 0.176564 0.379054 0.060286 0.008080 -0.220004 -0.026618 0.085744 0.210021 0.076148 -0.169738 0.024545 -0.146430 -0.130621 0.342503 0.143085 0.573862 -0.025028 0.110196 -0.180876 0.253931 -0.076335 -0.233990 -0.176047 0.102229 -0.498184 0.259185 0.007912 0.176846 -0.180820 -0.335270 0.279311 -0.115490 0.112255 0.331286 -0.246695 0.079578 0.041720 0.234895 -0.182850 -0.415546 0.381618 0.101492 0.133227 -0.045913 0.132159 -0.119939 0.437265 -0.262357 0.087933 0.197891 0.034939 -0.014397 -0.245709 -0.087831
后 0.099146 -0.102995 -0.072180 0.412916 -0.180440 -0.111552 0.535514 -0.353803 -0.159241 0.098870 0.688944 -0.175127 0.194429 0.068942 0.230279 -0.128618 -0.387254 0.074085 0.287060 -0.401553 0.056547 0.541332 0.313886 -0.157607 0.069361 0.075527 -0.098002 -0.131003 0.289928 0.388825 0.167725 0.036823 0.157248 0.355813 -0.070059 0.313366 0.166833 -0.022936 -0.318153 -0.150568 -0.372138 -0.018432 -0.271993 -0.256130 -0.386869 -0.159118 0.176254 0.384317 0.065264 0.013113 -0.203743 -0.031923 0.074340 0.211947 0.077194 -0.172468 0.022894 -0.138913 -0.127703 0.330815 0.145368 0.596880 -0.029176 0.108546 -0.193087 0.263180 -0.097705 -0.222909 -0.178174 0.104346 -0.514284 0.262761 -0.010254 0.188680 -0.161594 -0.343988 0.282356 -0.124574 0.117933 0.345103 -0.259508 0.089762 0.046107 0.241430 -0.174330 -0.426360 0.362716 0.116884 0.115682 -0.052264 0.141563 -0.135176 0.432787 -0.258221 0.083948 0.193163 0.029972 -0.026492 -0.257126 -0.083248
算 0.092205 -0.075133 -0.073727 0.347272 -0.157081 -0.115627 0.447098 -0.298305 -0.138577 0.070682 0.576319 -0.146958 0.152720 0.054533 0.186238 -0.089345 -0.313920 0.067150 0.237705 -0.332329 0.051797 0.464355 0.269081 -0.125505 0.040496 0.065957 -0.073015 -0.090023 0.246177 0.304718 0.121002 0.003234 0.103045 0.277348 -0.031982 0.250424 0.136314 -0.012324 -0.261004 -0.120494 -0.309947 0.002911 -0.226181 -0.215915 -0.321603 -0.126242 0.147873 0.321143 0.045557 0.008187 -0.195650 -0.048051 0.062271 0.158284 0.060029 -0.144777 0.007126 -0.142406 -0.110185 0.289728 0.118726 0.488608 -0.026458 0.074511 -0.146905 0.230908 -0.054964 -0.200504 -0.132364 0.109088 -0.428397 0.210393 -0.014139 0.160702 -0.138527 -0.270312 0.233015 -0.115349 0.099546 0.291761 -0.211084 0.063904 0.036216 0.208568 -0.155127 -0.366266 0.297025 0.104107 0.110010 -0.038967 0.139642 -0.086660 0.369862 -0.215485 0.077315 0.160986 0.025825 -0.020195 -0.217535 -0.037356
付款 0.063916 -0.084811 -0.052402 0.347240 -0.150213 -0.083182 0.431340 -0.285089 -0.121911 0.102354 0.577159 -0.145394 0.161957 0.056147 0.208685 -0.118178 -0.327394 0.048327 0.223975 -0.324530 0.058818 0.451886 0.259162 -0.113873 0.041172 0.055478 -0.071478 -0.094992 0.238589 0.321420 0.134389 0.044087 0.141813 0.299740 -0.062948 0.258387 0.151092 -0.018544 -0.264070 -0.118023 -0.310444 -0.022613 -0.215136 -0.216627 -0.317746 -0.137381 0.152023 0.318472 0.058839 0.002279 -0.152611 -0.019531 0.060881 0.187761 0.075943 -0.134563 0.019130 -0.109645 -0.090040 0.254639 0.114828 0.505033 -0.030612 0.091684 -0.180077 0.212492 -0.091210 -0.168814 -0.152405 0.098620 -0.431776 0.204795 0.000429 0.153715 -0.120045 -0.282894 0.231193 -0.100821 0.100216 0.294191 -0.220033 0.082236 0.036441 0.192774 -0.136472 -0.356634 0.288339 0.104823 0.098384 -0.049161 0.111531 -0.119104 0.354845 -0.202510 0.072899 0.157452 0.018254 -0.013785 -0.210051 -0.073970
说 0.100213 -0.106828 -0.074506 0.414156 -0.189715 -0.118321 0.538682 -0.353701 -0.164273 0.102785 0.695443 -0.183872 0.196699 0.058622 0.234397 -0.140110 -0.393409 0.067334 0.287458 -0.407616 0.060504 0.556251 0.328664 -0.157854 0.063100 0.081664 -0.088924 -0.139045 0.298274 0.402356 0.173746 0.036528 0.165058 0.365189 -0.079725 0.321688 0.175074 -0.029206 -0.324789 -0.151836 -0.374592 -0.029631 -0.281154 -0.260437 -0.393660 -0.162653 0.179918 0.393239 0.064286 0.006658 -0.218478 -0.036262 0.074410 0.222308 0.087240 -0.179813 0.018744 -0.146179 -0.128246 0.336294 0.152945 0.610739 -0.027206 0.119410 -0.205570 0.266479 -0.095178 -0.240607 -0.186921 0.103870 -0.525388 0.264419 -0.002870 0.182410 -0.167691 -0.353594 0.299652 -0.128623 0.118779 0.367586 -0.261289 0.090453 0.044911 0.244663 -0.183481 -0.437575 0.373084 0.112577 0.124267 -0.058709 0.142309 -0.139007 0.452149 -0.262154 0.082520 0.205529 0.033070 -0.022374 -0.256678 -0.089772
显示 0.093183 -0.116004 -0.072720 0.438695 -0.198136 -0.121420 0.566734 -0.381768 -0.172110 0.108504 0.730259 -0.188956 0.213644 0.054864 0.254320 -0.142886 -0.411109 0.069226 0.309761 -0.422477 0.065211 0.587513 0.347227 -0.166706 0.072721 0.091545 -0.107525 -0.141473 0.316647 0.416816 0.181117 0.036895 0.169437 0.379093 -0.077174 0.336150 0.188159 -0.019958 -0.342853 -0.159490 -0.399586 -0.025774 -0.283981 -0.274589 -0.414933 -0.175920 0.186625 0.405735 0.068447 -0.001678 -0.234610 -0.034026 0.084745 0.228632 0.087569 -0.182263 0.029143 -0.152043 -0.144996 0.358340 0.151429 0.634370 -0.037474 0.122021 -0.215009 0.285790 -0.098333 -0.242956 -0.189631 0.116802 -0.556459 0.278108 -0.004507 0.199206 -0.170777 -0.362259 0.310566 -0.125754 0.117161 0.382154 -0.268727 0.096290 0.045455 0.259483 -0.191534 -0.450952 0.391772 0.119917 0.120262 -0.052445 0.147070 -0.134586 0.464890 -0.282273 0.090987 0.207305 0.027674 -0.026660 -0.272510 -0.093054
客人 0.094798 -0.111035 -0.069239 0.405150 -0.184214 -0.113385 0.525114 -0.353273 -0.155528 0.108847 0.688418 -0.176751 0.190507 0.064184 0.236807 -0.134083 -0.380791 0.074565 0.280022 -0.401227 0.061067 0.537744 0.321132 -0.149152 0.065839 0.080954 -0.091866 -0.137087 0.296904 0.392656 0.165733 0.039581 0.148800 0.352247 -0.077753 0.310673 0.180747 -0.023416 -0.319031 -0.152453 -0.375297 -0.025104 -0.274856 -0.257124 -0.388805 -0.158526 0.175597 0.381858 0.067372 0.007738 -0.217227 -0.038932 0.073249 0.210155 0.083497 -0.179744 0.023683 -0.146354 -0.129545 0.331598 0.148396 0.593263 -0.033173 0.103209 -0.194063 0.264264 -0.099963 -0.227170 -0.178445 0.112306 -0.515361 0.256674 -0.000919 0.186119 -0.171014 -0.349107 0.292230 -0.124691 0.120154 0.357047 -0.251111 0.084538 0.037844 0.236735 -0.173611 -0.425017 0.369968 0.115367 0.118078 -0.045663 0.134547 -0.137570 0.432835 -0.258360 0.089119 0.203645 0.021696 -0.030734 -0.257188 -0.084102
一单 0.094252 -0.097579 -0.064751 0.386132 -0.173071 -0.105687 0.484588 -0.325732 -0.137929 0.101805 0.636813 -0.159118 0.167984 0.051307 0.218647 -0.123246 -0.366173 0.053860 0.264257 -0.377300 0.045189 0.507065 0.300253 -0.143947 0.053782 0.080858 -0.083157 -0.129615 0.278469 0.374213 0.151248 0.036379 0.144538 0.325450 -0.076180 0.291550 0.165557 -0.028017 -0.289066 -0.141604 -0.344247 -0.038630 -0.256984 -0.235853 -0.354034 -0.149054 0.159000 0.353197 0.056882 -0.000829 -0.198790 -0.031311 0.063671 0.196403 0.077933 -0.167741 0.016557 -0.115596 -0.119697 0.309428 0.135918 0.554543 -0.021153 0.109759 -0.188586 0.246382 -0.087169 -0.217053 -0.171466 0.097416 -0.477973 0.239983 0.008919 0.174250 -0.154150 -0.321009 0.283825 -0.117209 0.103322 0.337290 -0.225356 0.079425 0.034779 0.220783 -0.165388 -0.398815 0.347700 0.109395 0.113286 -0.045855 0.135257 -0.129030 0.397277 -0.241691 0.071595 0.185532 0.022669 -0.024981 -0.242359 -0.077275
电话 0.082962 -0.085011 -0.064288 0.378387 -0.173706 -0.101566 0.496165 -0.336872 -0.146219 0.097468 0.650079 -0.162916 0.182760 0.064354 0.213246 -0.121807 -0.350921 0.058217 0.273974 -0.372613 0.054558 0.510553 0.293425 -0.151344 0.056017 0.082251 -0.093649 -0.123851 0.274082 0.359944 0.161994 0.040770 0.140413 0.336716 -0.069825 0.285703 0.162196 -0.016666 -0.290558 -0.140737 -0.348818 -0.032382 -0.246450 -0.246859 -0.358588 -0.144462 0.167532 0.357364 0.057923 0.010759 -0.195755 -0.027772 0.079893 0.195047 0.068936 -0.153725 0.031215 -0.129186 -0.111179 0.313849 0.141793 0.551967 -0.026096 0.104112 -0.185072 0.248438 -0.086025 -0.206856 -0.167638 0.107842 -0.490000 0.240343 0.000731 0.166820 -0.156819 -0.331203 0.270445 -0.112267 0.117798 0.327081 -0.234526 0.078425 0.040750 0.221688 -0.161701 -0.394312 0.336799 0.102982 0.111497 -0.053255 0.133168 -0.128893 0.411654 -0.237439 0.082357 0.184913 0.027489 -0.020594 -0.240752 -0.081576
时候 0.072662 -0.091359 -0.056467 0.364232 -0.147332 -0.090286 0.451974 -0.300666 -0.136849 0.106976 0.604441 -0.161060 0.162075 0.040728 0.197573 -0.118443 -0.348464 0.063374 0.256180 -0.355753 0.020694 0.476878 0.278032 -0.143581 0.065447 0.071346 -0.079820 -0.114611 0.275956 0.342990 0.135603 0.035526 0.143166 0.295611 -0.050859 0.265462 0.141463 -0.019790 -0.258360 -0.131012 -0.334695 -0.027956 -0.246912 -0.242005 -0.331212 -0.143092 0.138921 0.327132 0.040053 -0.001901 -0.176563 -0.021233 0.061290 0.198957 0.066230 -0.145435 0.022360 -0.083817 -0.109985 0.268452 0.113307 0.531991 -0.025329 0.088487 -0.186901 0.221092 -0.080787 -0.214261 -0.152886 0.089223 -0.466483 0.204489 0.009545 0.169148 -0.146662 -0.307801 0.256890 -0.106286 0.101442 0.304603 -0.201474 0.071538 0.019701 0.205359 -0.149261 -0.361006 0.320377 0.108918 0.120154 -0.039655 0.117010 -0.120100 0.379902 -0.223947 0.086740 0.168157 0.003158 -0.001142 -0.228842 -0.072268
无法 0.092104 -0.097190 -0.069785 0.408582 -0.175594 -0.109203 0.531705 -0.359865 -0.159931 0.096832 0.684242 -0.165195 0.195493 0.075928 0.233217 -0.133918 -0.375314 0.079971 0.292213 -0.401835 0.074350 0.548171 0.316503 -0.157680 0.064541 0.082221 -0.106289 -0.138351 0.287320 0.378732 0.168173 0.031635 0.155767 0.354015 -0.067152 0.323100 0.174463 -0.025873 -0.327402 -0.144035 -0.368318 -0.029430 -0.266554 -0.248776 -0.396452 -0.159423 0.171138 0.383438 0.067455 0.014208 -0.201636 -0.030667 0.072145 0.217917 0.087261 -0.176120 0.030587 -0.146877 -0.132294 0.336945 0.143315 0.591325 -0.038547 0.100277 -0.189602 0.265631 -0.093714 -0.223625 -0.170976 0.110578 -0.510092 0.272010 -0.008878 0.182967 -0.169037 -0.348434 0.285849 -0.112683 0.125919 0.346084 -0.253371 0.086880 0.048223 0.234483 -0.174557 -0.420143 0.370923 0.111081 0.116221 -0.050881 0.140493 -0.133888 0.434868 -0.259992 0.083953 0.194243 0.040277 -0.021451 -0.248772 -0.084551
1 0.063645 -0.122086 -0.040818 0.338487 -0.167337 -0.113514 0.464515 -0.289002 -0.121445 0.090516 0.577293 -0.151636 0.185330 0.042141 0.190460 -0.129983 -0.339629 0.039242 0.278521 -0.365974 0.061586 0.482425 0.287917 -0.130227 0.065329 0.078141 -0.070298 -0.116726 0.277584 0.347517 0.140925 0.038970 0.132170 0.333378 -0.084832 0.263074 0.148318 -0.034014 -0.264146 -0.141791 -0.347805 -0.054189 -0.226010 -0.201442 -0.346996 -0.134056 0.166905 0.344360 0.055647 0.014243 -0.215684 -0.021757 0.069313 0.210893 0.053706 -0.162654 0.010674 -0.090129 -0.139881 0.311755 0.147439 0.506207 -0.024707 0.086403 -0.187516 0.235710 -0.058468 -0.209500 -0.168530 0.087478 -0.440964 0.214658 0.033814 0.169073 -0.154243 -0.325651 0.281557 -0.116087 0.092160 0.295971 -0.221252 0.063859 0.032373 0.200051 -0.184458 -0.371067 0.325200 0.095846 0.124090 -0.057643 0.139933 -0.117811 0.390105 -0.221834 0.045862 0.186479 0.019021 -0.054737 -0.207018 -0.068007
日 0.092501 -0.138322 -0.068277 0.430963 -0.208635 -0.125695 0.570243 -0.362484 -0.159628 0.115845 0.724554 -0.192612 0.220741 0.062211 0.244654 -0.151905 -0.430924 0.054844 0.333426 -0.439995 0.064639 0.598817 0.348434 -0.165032 0.071792 0.089012 -0.093799 -0.151704 0.341806 0.429090 0.183928 0.050302 0.175775 0.404739 -0.096915 0.329969 0.190916 -0.035404 -0.340064 -0.163346 -0.423456 -0.056806 -0.284262 -0.268015 -0.424881 -0.167352 0.207903 0.426545 0.055575 0.008087 -0.252542 -0.039185 0.086570 0.250265 0.077629 -0.195995 0.012068 -0.119013 -0.160293 0.370568 0.172178 0.641842 -0.020765 0.105631 -0.235123 0.287354 -0.081633 -0.265179 -0.194555 0.112903 -0.552045 0.268882 0.034918 0.212155 -0.184283 -0.400838 0.338920 -0.137248 0.105328 0.379862 -0.269916 0.095905 0.042545 0.254980 -0.219259 -0.453390 0.400335 0.126313 0.146065 -0.065394 0.164615 -0.151504 0.471604 -0.273074 0.071792 0.225207 0.022209 -0.056000 -0.269124 -0.088660
多少 0.105390 -0.094943 -0.081077 0.432865 -0.194525 -0.141775 0.539587 -0.359785 -0.167812 0.084240 0.697015 -0.180385 0.187442 0.049553 0.218860 -0.092399 -0.385922 0.036039 0.303556 -0.389975 0.054180 0.567102 0.332179 -0.166084 0.047227 0.118030 -0.088577 -0.133375 0.303640 0.398703 0.143348 0.001806 0.141502 0.346190 -0.026722 0.294152 0.157892 -0.008619 -0.310185 -0.132291 -0.386953 -0.015255 -0.265259 -0.289048 -0.373325 -0.160620 0.189018 0.399953 0.037788 -0.003881 -0.249497 -0.044963 0.116277 0.189031 0.060045 -0.160668 0.021941 -0.154430 -0.120363 0.362974 0.142786 0.614016 -0.023706 0.132595 -0.187980 0.296848 -0.070050 -0.260308 -0.186935 0.140248 -0.535616 0.246532 0.018648 0.175757 -0.187004 -0.351718 0.297527 -0.147081 0.112654 0.352268 -0.253940 0.055934 0.032793 0.254375 -0.200675 -0.420273 0.382945 0.128137 0.168525 -0.049753 0.166024 -0.096107 0.475378 -0.274813 0.108410 0.212517 0.023447 -0.004866 -0.275007 -0.050368
小时 0.092976 -0.120580 -0.078927 0.454947 -0.199871 -0.100922 0.565110 -0.369658 -0.170766 0.120038 0.750310 -0.185759 0.199993 0.057107 0.254176 -0.152149 -0.423538 0.078512 0.300200 -0.444432 0.055095 0.587729 0.341454 -0.172272 0.068005 0.094962 -0.091202 -0.148313 0.335510 0.419580 0.189487 0.049702 0.169616 0.387454 -0.079830 0.343153 0.201174 -0.033493 -0.344711 -0.165521 -0.411312 -0.024558 -0.293493 -0.282888 -0.414508 -0.189139 0.178600 0.406919 0.070114 0.007976 -0.235954 -0.028501 0.075617 0.242964 0.093034 -0.190226 0.028976 -0.132720 -0.132789 0.343854 0.158197 0.653754 -0.030470 0.120476 -0.233214 0.284309 -0.111493 -0.251437 -0.191347 0.099989 -0.566158 0.282238 0.009863 0.200376 -0.186322 -0.383812 0.325963 -0.137998 0.124851 0.394530 -0.267129 0.104715 0.045897 0.257884 -0.196697 -0.456969 0.395086 0.122871 0.123768 -0.047130 0.135152 -0.161114 0.462820 -0.290115 0.088934 0.212576 0.028360 -0.021402 -0.280949 -0.095130
